<?xml version="1.0"?>
<opencv_storage>
<cascade>
  <stageType>BOOST</stageType>
  <featureType>HAAR</featureType>
  <height>24</height>
  <width>24</width>
  <stageParams>
    <boostType>GAB</boostType>
    <minHitRate>9.9900001287460327e-01</minHitRate>
    <maxFalseAlarm>5.0000000000000000e-01</maxFalseAlarm>
    <weightTrimRate>9.4999999999999996e-01</weightTrimRate>
    <maxDepth>1</maxDepth>
    <maxWeakCount>100</maxWeakCount></stageParams>
  <featureParams>
    <maxCatCount>0</maxCatCount>
    <featSize>1</featSize>
    <mode>BASIC</mode></featureParams>
  <stageNum>20</stageNum>
  <stages>
    <!-- stage 0 -->
    <_>
      <maxWeakCount>11</maxWeakCount>
      <stageThreshold>-2.3037045001983643e+00</stageThreshold>
      <weakClassifiers>
        <_>
          <internalNodes>
            0 -1 239 9.4529595226049423e-03</internalNodes>
          <leafValues>
            -8.4199583530426025e-01 7.4617069959640503e-01</leafValues></_>
        <_>
          <internalNodes>
            0 -1 38 8.5760645568370819e-02</internalNodes>
          <leafValues>
            -5.6666308641433716e-01 7.3378956317901611e-01</leafValues></_>
        <_>
          <internalNodes>
            0 -1 161 3.2199565321207047e-02</internalNodes>
          <leafValues>
            -7.0966517925262451e-01 5.3524202108383179e-01</leafValues></_>
        <_>
          <internalNodes>
            0 -1 267 -7.9113289713859558e-02</internalNodes>
          <leafValues>
            9.7995203733444214e-01 -2.5895896553993225e-01</leafValues></_>
        <_>
          <internalNodes>
            0 -1 424 -3.3296714536845684e-04</internalNodes>
          <leafValues>
            -5.5733716487884521e-01 3.3874019980430603e-01</leafValues></_>
        <_>
          <internalNodes>
            0 -1 231 1.5614381118211895e-04</internalNodes>
          <leafValues>
            -4.6448567509651184e-01 3.3701816201210022e-01</leafValues></_>
        <_>
          <internalNodes>
            0 -1 455 6.6654393449425697e-03</internalNodes>
          <leafValues>
            1.8480056524276733e-01 -8.4279012680053711e-01</leafValues></_>
        <_>
          <internalNodes>
            0 -1 450 -2.1549692377448082e-02</internalNodes>
          <leafValues>
            4.5382383465766907e-01 -3.2508176565170288e-01</leafValues></_>
        <_>
          <internalNodes>
            0 -1 295 -7.7301971032284200e-05</internalNodes>
          <leafValues>
            -5.4710155725479126e-01 2.9944244027137756e-01</leafValues></_>
        <_>
          <internalNodes>
            0 -1 362 -1.8665585666894913e-03</internalNodes>
          <leafValues>
            5.7481819391250610e-01 -2.4282440543174744e-01</leafValues></_>
        <_>
          <internalNodes>
            0 -1 333 -5.0266820471733809e-04</internalNodes>
          <leafValues>
            -5.9862786531448364e-01 2.8298711776733398e-01</leafValues></_></weakClassifiers></_>
    <!-- stage 1 -->
    <_>
      <maxWeakCount>13</maxWeakCount>
      <stageThreshold>-1.9872376918792725e+00</stageThreshold>
      <weakClassifiers>
        <_>
          <internalNodes>
            0 -1 336 -2.3364277556538582e-02</internalNodes>
          <leafValues>
            7.4725276231765747e-01 -5.8536583185195923e-01</leafValues></_>
        <_>
          <internalNodes>
            0 -1 21 1.7787191271781921e-01</internalNodes>
          <leafValues>
            -3.4707614779472351e-01 7.6459985971450806e-01</leafValues></_>
        <_>
          <internalNodes>
            0 -1 157 5.7005144655704498e-02</internalNodes>
          <leafValues>
            -4.8674157261848450e-01 4.8114290833473206e-01</leafValues></_>
        <_>
          <internalNodes>
            0 -1 345 -7.3576613795012236e-04</internalNodes>
          <leafValues>
            -7.3685389757156372e-01 2.1774448454380035e-01</leafValues></_>
        <_>
          <internalNodes>
            0 -1 254 -1.1709911632351577e-05</internalNodes>
          <leafValues>
            3.9042359590530396e-01 -3.8867238163948059e-01</leafValues></_>
        <_>
          <internalNodes>
            0 -1 314 6.0909609310328960e-03</internalNodes>
          <leafValues>
            2.8318601846694946e-01 -5.7082748413085938e-01</leafValues></_>
        <_>
          <internalNodes>
            0 -1 597 1.6373551261494868e-05</internalNodes>
          <leafValues>
            -3.6632877588272095e-01 5.0333166122436523e-01</leafValues></_>
        <_>
          <internalNodes>
            0 -1 374 -1.1709266800608020e-05</internalNodes>
          <leafValues>
            3.9844313263893127e-01 -3.1152245402336121e-01</leafValues></_>
        <_>
          <internalNodes>
            0 -1 393 2.6201610453426838e-03</internalNodes>
          <leafValues>
            -3.9773291349411011e-01 3.1977736949920654e-01</leafValues></_>
        <_>
          <internalNodes>
            0 -1 232 -1.1527902446687222e-02</internalNodes>
          <leafValues>
            -6.3679784536361694e-01 2.1430540084838867e-01</leafValues></_>
        <_>
          <internalNodes>
            0 -1 284 -4.4782292097806931e-03</internalNodes>
          <leafValues>
            -9.1226857900619507e-01 1.3352064788341522e-01</leafValues></_>
        <_>
          <internalNodes>
            0 -1 564 -2.3228403180837631e-02</internalNodes>
          <leafValues>
            6.9079470634460449e-01 -2.1873708069324493e-01</leafValues></_>
        <_>
          <internalNodes>
            0 -1 360 -2.3019456421025097e-04</internalNodes>
          <leafValues>
            -5.7912766933441162e-01 2.6618286967277527e-01</leafValues></_></weakClassifiers></_>
    <!-- stage 2 -->
    <_>
      <maxWeakCount>17</maxWeakCount>
      <stageThreshold>-2.0676608085632324e+00</stageThreshold>
      <weakClassifiers>
        <_>
          <internalNodes>
            0 -1 226 -4.9080066382884979e-02</internalNodes>
          <leafValues>
            5.8411216735839844e-01 -6.1568629741668701e-01</leafValues></_>
        <_>
          <internalNodes>
            0 -1 261 2.7278240770101547e-02</internalNodes>
          <leafValues>
            -7.4801123142242432e-01 4.3556034564971924e-01</leafValues></_>
        <_>
          <internalNodes>
            0 -1 237 9.2840995639562607e-03</internalNodes>
          <leafValues>
            -6.4470523595809937e-01 3.5885083675384521e-01</leafValues></_>
        <_>
          <internalNodes>
            0 -1 87 4.3703775852918625e-02</internalNodes>
          <leafValues>
            -2.7244058251380920e-01 7.7566587924957275e-01</leafValues></_>
        <_>
          <internalNodes>
            0 -1 287 3.8837542524561286e-04</internalNodes>
          <leafValues>
            -3.5783770680427551e-01 4.1782897710800171e-01</leafValues></_>
        <_>
          <internalNodes>
            0 -1 553 -1.6255311667919159e-02</internalNodes>
          <leafValues>
            4.5819926261901855e-01 -2.9553049802780151e-01</leafValues></_>
        <_>
          <internalNodes>
            0 -1 465 -1.5009108465164900e-03</internalNodes>
          <leafValues>
            -6.5721040964126587e-01 2.0348541438579559e-01</leafValues></_>
        <_>
          <internalNodes>
            0 -1 426 2.2999739740043879e-03</internalNodes>
          <leafValues>
            2.2551007568836212e-01 -5.5125486850738525e-01</leafValues></_>
        <_>
          <internalNodes>
            0 -1 42 -1.1345171928405762e-01</internalNodes>
          <leafValues>
            7.6111143827438354e-01 -1.8884690105915070e-01</leafValues></_>
        <_>
          <internalNodes>
            0 -1 120 -3.3762340899556875e-03</internalNodes>
          <leafValues>
            -5.9316939115524292e-01 2.2976598143577576e-01</leafValues></_>
        <_>
          <internalNodes>
            0 -1 402 1.7050356836989522e-04</internalNodes>
          <leafValues>
            -2.8795039653778076e-01 4.9747118353843689e-01</leafValues></_>
        <_>
          <internalNodes>
            0 -1 126 -1.9432373344898224e-02</internalNodes>
          <leafValues>
            -7.4871581792831421e-01 2.3550406098365784e-01</leafValues></_>
        <_>
          <internalNodes>
            0 -1 272 -1.3466362361214124e-05</internalNodes>
          <leafValues>
            3.4039819240570068e-01 -3.5370135307312012e-01</leafValues></_>
        <_>
          <internalNodes>
            0 -1 392 -1.4224939513951540e-04</internalNodes>
          <leafValues>
            -5.8309090137481689e-01 2.4267844855785370e-01</leafValues></_>
        <_>
          <internalNodes>
            0 -1 259 -2.0524219144135714e-04</internalNodes>
          <leafValues>
            -4.5687213540077209e-01 2.2554671764373779e-01</leafValues></_>
        <_>
          <internalNodes>
            0 -1 224 9.2721631517633796e-04</internalNodes>
          <leafValues>
            2.1509613096714020e-01 -4.6067360043525696e-01</leafValues></_>
        <_>
          <internalNodes>
            0 -1 566 2.2850288078188896e-03</internalNodes>
          <leafValues>
            1.1946260929107666e-01 -7.4215418100357056e-01</leafValues></_></weakClassifiers></_>
    <!-- stage 3 -->
    <_>
      <maxWeakCount>25</maxWeakCount>
      <stageThreshold>-2.4331974983215332e+00</stageThreshold>
      <weakClassifiers>
        <_>
          <internalNodes>
            0 -1 546 -4.9071021378040314e-02</internalNodes>
          <leafValues>
            8.6080586910247803e-01 -4.4962406158447266e-01</leafValues></_>
        <_>
          <internalNodes>
            0 -1 305 1.2484662234783173e-02</internalNodes>
          <leafValues>
            -5.2888768911361694e-01 6.2464416027069092e-01</leafValues></_>
        <_>
          <internalNodes>
            0 -1 96 4.0110703557729721e-02</internalNodes>
          <leafValues>
            -3.1650501489639282e-01 7.7082675695419312e-01</leafValues></_>
        <_>
          <internalNodes>
            0 -1 299 -3.3129848539829254e-02</internalNodes>
          <leafValues>
            4.0940871834754944e-01 -4.5967820286750793e-01</leafValues></_>
        <_>
          <internalNodes>
            0 -1 20 3.6647386848926544e-02</internalNodes>
          <leafValues>
            -2.6403218507766724e-01 4.6859329938888550e-01</leafValues></_>
        <_>
          <internalNodes>
            0 -1 91 -1.1978794634342194e-01</internalNodes>
          <leafValues>
            7.0449507236480713e-01 -2.0791657269001007e-01</leafValues></_>
        <_>
          <internalNodes>
            0 -1 520 -6.3796848058700562e-02</internalNodes>
          <leafValues>
            7.4305284023284912e-01 -1.2192185968160629e-01</leafValues></_>
        <_>
          <internalNodes>
            0 -1 436 -2.2106214892119169e-03</internalNodes>
          <leafValues>
            -6.7981952428817749e-01 1.8108548223972321e-01</leafValues></_>
        <_>
          <internalNodes>
            0 -1 250 3.0565988272428513e-03</internalNodes>
          <leafValues>
            -2.3427048325538635e-01 4.8835751414299011e-01</leafValues></_>
        <_>
          <internalNodes>
            0 -1 474 5.1481327973306179e-03</internalNodes>
          <leafValues>
            -3.5583704710006714e-01 3.2838836312294006e-01</leafValues></_>
        <_>
          <internalNodes>
            0 -1 525 -3.2783888746052980e-03</internalNodes>
          <leafValues>
            -7.3153620958328247e-01 1.6950348019599915e-01</leafValues></_>
        <_>
          <internalNodes>
            0 -1 581 -1.8693652004003525e-02</internalNodes>
          <leafValues>
            6.4427065849304199e-01 -2.0146250724792480e-01</leafValues></_>
        <_>
          <internalNodes>
            0 -1 59 -1.5250347554683685e-02</internalNodes>
          <leafValues>
            -6.9523608684539795e-01 1.9656580686569214e-01</leafValues></_>
        <_>
          <internalNodes>
            0 -1 579 1.9971448928117752e-02</internalNodes>
          <leafValues>
            -2.3037125170230865e-01 5.9331393241882324e-01</leafValues></_>
        <_>
          <internalNodes>
            0 -1 180 -4.3696202337741852e-03</internalNodes>
          <leafValues>
            -7.4878585338592529e-01 1.7202550172805786e-01</leafValues></_>
        <_>
          <internalNodes>
            0 -1 181 8.4220003336668015e-03</internalNodes>
          <leafValues>
            8.5564501583576202e-02 -8.9368653297424316e-01</leafValues></_>
        <_>
          <internalNodes>
            0 -1 177 2.8428332880139351e-03</internalNodes>
          <leafValues>
            -3.0478104948997498e-01 3.8674306869506836e-01</leafValues></_>
        <_>
          <internalNodes>
            0 -1 446 -1.4061369001865387e-03</internalNodes>
          <leafValues>
            -5.7212841510772705e-01 2.0795176923274994e-01</leafValues></_>
        <_>
          <internalNodes>
            0 -1 229 -2.0995581871829927e-04</internalNodes>
          <leafValues>
            -6.6552644968032837e-01 1.7968602478504181e-01</leafValues></_>
        <_>
          <internalNodes>
            0 -1 48 -3.7215720862150192e-02</internalNodes>
          <leafValues>
            8.5151356458663940e-01 -1.6791966557502747e-01</leafValues></_>
        <_>
          <internalNodes>
            0 -1 133 8.8608071208000183e-02</internalNodes>
          <leafValues>
            1.6571053862571716e-01 -8.7375146150588989e-01</leafValues></_>
        <_>
          <internalNodes>
            0 -1 347 3.2091431319713593e-02</internalNodes>
          <leafValues>
            -1.9313219189643860e-01 6.4080411195755005e-01</leafValues></_>
        <_>
          <internalNodes>
            0 -1 533 -6.8855813879054040e-05</internalNodes>
          <leafValues>
            -5.8828270435333252e-01 1.8368707597255707e-01</leafValues></_>
        <_>
          <internalNodes>
            0 -1 544 -9.7974657546728849e-04</internalNodes>
          <leafValues>
            4.9909999966621399e-01 -2.1958142518997192e-01</leafValues></_>
        <_>
          <internalNodes>
            0 -1 80 -1.5248548879753798e-04</internalNodes>
          <leafValues>
            -3.9515179395675659e-01 2.8094348311424255e-01</leafValues></_></weakClassifiers></_>
    <!-- stage 4 -->
    <_>
      <maxWeakCount>41</maxWeakCount>
      <stageThreshold>-2.4713923931121826e+00</stageThreshold>
      <weakClassifiers>
        <_>
          <internalNodes>
            0 -1 238 2.3671435192227364e-03</internalNodes>
          <leafValues>
            -8.0225986242294312e-01 3.7671232223510742e-01</leafValues></_>
        <_>
          <internalNodes>
            0 -1 260 4.7183573246002197e-02</internalNodes>
          <leafValues>
            -5.8322751522064209e-01 4.4738897681236267e-01</leafValues></_>
        <_>
          <internalNodes>
            0 -1 349 1.0346397903049365e-04</internalNodes>
          <leafValues>
            -6.9228488206863403e-01 2.5110754370689392e-01</leafValues></_>
        <_>
          <internalNodes>
            0 -1 528 -1.7633587121963501e-02</internalNodes>
          <leafValues>
            6.9864004850387573e-01 -2.6100450754165649e-01</leafValues></_>
        <_>
          <internalNodes>
            0 -1 438 -5.7721319608390331e-03</internalNodes>
          <leafValues>
            -5.1184397935867310e-01 3.0538272857666016e-01</leafValues></_>
        <_>
          <internalNodes>
            0 -1 149 3.1474631279706955e-02</internalNodes>
          <leafValues>
            -3.1016981601715088e-01 6.4003270864486694e-01</leafValues></_>
        <_>
          <internalNodes>
            0 -1 18 7.2249867022037506e-02</internalNodes>
          <leafValues>
            -1.0977447777986526e-01 6.7958921194076538e-01</leafValues></_>
        <_>
          <internalNodes>
            0 -1 508 5.9717550873756409e-02</internalNodes>
          <leafValues>
            -1.3145010173320770e-01 7.4683672189712524e-01</leafValues></_>
        <_>
          <internalNodes>
            0 -1 60 3.6521966103464365e-03</internalNodes>
          <leafValues>
            2.4964627623558044e-01 -4.6180650591850281e-01</leafValues></_>
        <_>
          <internalNodes>
            0 -1 153 1.1886698193848133e-02</internalNodes>
          <leafValues>
            -3.5416373610496521e-01 3.8171827793121338e-01</leafValues></_>
        <_>
          <internalNodes>
            0 -1 201 -1.5663803787901998e-03</internalNodes>
          <leafValues>
            -7.0646250247955322e-01 1.8774749338626862e-01</leafValues></_>
        <_>
          <internalNodes>
            0 -1 461 6.3594387029297650e-05</internalNodes>
          <leafValues>
            -2.9658997058868408e-01 3.7002822756767273e-01</leafValues></_>
        <_>
          <internalNodes>
            0 -1 457 -1.2040977599099278e-03</internalNodes>
          <leafValues>
            -5.8344548940658569e-01 2.0982199907302856e-01</leafValues></_>
        <_>
          <internalNodes>
            0 -1 518 7.0565850473940372e-03</internalNodes>
          <leafValues>
            -2.7761071920394897e-01 3.6496007442474365e-01</leafValues></_>
        <_>
          <internalNodes>
            0 -1 23 -3.0966185033321381e-02</internalNodes>
          <leafValues>
            -9.3561106920242310e-01 9.9101185798645020e-02</leafValues></_>
        <_>
          <internalNodes>
            0 -1 439 1.1856917990371585e-04</internalNodes>
          <leafValues>
            -2.4762298166751862e-01 3.8904106616973877e-01</leafValues></_>
        <_>
          <internalNodes>
            0 -1 22 -2.4922303855419159e-03</internalNodes>
          <leafValues>
            -5.2485924959182739e-01 1.9966900348663330e-01</leafValues></_>
        <_>
          <internalNodes>
            0 -1 406 1.8509924411773682e-02</internalNodes>
          <leafValues>
            1.1207243800163269e-01 -7.5942945480346680e-01</leafValues></_>
        <_>
          <internalNodes>
            0 -1 344 2.3927936330437660e-02</internalNodes>
          <leafValues>
            -1.6939175128936768e-01 5.5520111322402954e-01</leafValues></_>
        <_>
          <internalNodes>
            0 -1 505 -7.7652223408222198e-03</internalNodes>
          <leafValues>
            -5.9066349267959595e-01 1.5934401750564575e-01</leafValues></_>
        <_>
          <internalNodes>
            0 -1 75 -5.5432049557566643e-03</internalNodes>
          <leafValues>
            4.2602387070655823e-01 -1.8882393836975098e-01</leafValues></_>
        <_>
          <internalNodes>
            0 -1 16 2.8434103727340698e-01</internalNodes>
          <leafValues>
            -1.2557005882263184e-01 7.1699011325836182e-01</leafValues></_>
        <_>
          <internalNodes>
            0 -1 13 -2.2876379080116749e-03</internalNodes>
          <leafValues>
            -6.8780624866485596e-01 1.4378155767917633e-01</leafValues></_>
        <_>
          <internalNodes>
            0 -1 252 9.0572098270058632e-04</internalNodes>
          <leafValues>
            1.8011964857578278e-01 -4.4942873716354370e-01</leafValues></_>
        <_>
          <internalNodes>
            0 -1 135 2.9754620045423508e-02</internalNodes>
          <leafValues>
            1.4062264561653137e-01 -5.7463353872299194e-01</leafValues></_>
        <_>
          <internalNodes>
            0 -1 543 -2.3578128093504347e-05</internalNodes>
          <leafValues>
            3.3466225862503052e-01 -2.7596113085746765e-01</leafValues></_>
        <_>
          <internalNodes>
            0 -1 428 -3.2225152244791389e-04</internalNodes>
          <leafValues>
            -4.8060467839241028e-01 1.8588304519653320e-01</leafValues></_>
        <_>
          <internalNodes>
            0 -1 358 1.5264167450368404e-03</internalNodes>
          <leafValues>
            1.0636289417743683e-01 -6.9444483518600464e-01</leafValues></_>
        <_>
          <internalNodes>
            0 -1 176 -4.3507863301783800e-04</internalNodes>
          <leafValues>
            3.7736105918884277e-01 -2.5111114978790283e-01</leafValues></_>
        <_>
          <internalNodes>
            0 -1 480 2.6010144501924515e-02</internalNodes>
          <leafValues>
            1.0276522487401962e-01 -7.4707943201065063e-01</leafValues></_>
        <_>
          <internalNodes>
            0 -1 496 1.4426046982407570e-03</internalNodes>
          <leafValues>
            -1.6568675637245178e-01 4.5797112584114075e-01</leafValues></_>
        <_>
          <internalNodes>
            0 -1 17 -7.4242847040295601e-04</internalNodes>
          <leafValues>
            -4.4143813848495483e-01 2.1411259472370148e-01</leafValues></_>
        <_>
          <internalNodes>
            0 -1 90 -3.0261987820267677e-02</internalNodes>
          <leafValues>
            7.6493972539901733e-01 -1.1452074348926544e-01</leafValues></_>
        <_>
          <internalNodes>
            0 -1 273 -5.0319498404860497e-04</internalNodes>
          <leafValues>
            -5.2188235521316528e-01 1.7595036327838898e-01</leafValues></_>
        <_>
          <internalNodes>
            0 -1 44 2.9092887416481972e-03</internalNodes>
          <leafValues>
            -1.2965926527976990e-01 6.4231050014495850e-01</leafValues></_>
        <_>
          <internalNodes>
            0 -1 46 -9.3096728960517794e-05</internalNodes>
          <leafValues>
            -5.9019225835800171e-01 1.5398196876049042e-01</leafValues></_>
        <_>
          <internalNodes>
            0 -1 463 8.0254976637661457e-04</internalNodes>
          <leafValues>
            -1.8985751271247864e-01 3.9719915390014648e-01</leafValues></_>
        <_>
          <internalNodes>
            0 -1 154 3.0446313321590424e-03</internalNodes>
          <leafValues>
            1.9799987971782684e-01 -4.0495938062667847e-01</leafValues></_>
        <_>
          <internalNodes>
            0 -1 257 2.1617524325847626e-03</internalNodes>
          <leafValues>
            -1.3647416234016418e-01 5.5297982692718506e-01</leafValues></_>
        <_>
          <internalNodes>
            0 -1 469 6.5477535128593445e-02</internalNodes>
          <leafValues>
            1.1623319983482361e-01 -7.0141297578811646e-01</leafValues></_>
        <_>
          <internalNodes>
            0 -1 466 6.0237008146941662e-03</internalNodes>
          <leafValues>
            1.0122441500425339e-01 -6.1508285999298096e-01</leafValues></_></weakClassifiers></_>
    <!-- stage 5 -->
    <_>
      <maxWeakCount>18</maxWeakCount>
      <stageThreshold>-1.6223455667495728e+00</stageThreshold>
      <weakClassifiers>
        <_>
          <internalNodes>
            0 -1 266 -3.2008454203605652e-02</internalNodes>
          <leafValues>
            6.9444441795349121e-01 -5.4325258731842041e-01</leafValues></_>
        <_>
          <internalNodes>
            0 -1 128 4.3197639286518097e-02</internalNodes>
          <leafValues>
            -5.1167494058609009e-01 4.4239181280136108e-01</leafValues></_>
        <_>
          <internalNodes>
            0 -1 84 5.5856525897979736e-02</internalNodes>
          <leafValues>
            -3.1170833110809326e-01 5.6869822740554810e-01</leafValues></_>
        <_>
          <internalNodes>
            0 -1 369 5.8270259760320187e-03</internalNodes>
          <leafValues>
            -4.0561264753341675e-01 4.1974139213562012e-01</leafValues></_>
        <_>
          <internalNodes>
            0 -1 475 1.5192243270576000e-02</internalNodes>
          <leafValues>
            -3.3829337358474731e-01 4.3053728342056274e-01</leafValues></_>
        <_>
          <internalNodes>
            0 -1 246 -3.7033641710877419e-03</internalNodes>
          <leafValues>
            4.0537983179092407e-01 -2.8011551499366760e-01</leafValues></_>
        <_>
          <internalNodes>
            0 -1 102 6.1277567874640226e-04</internalNodes>
          <leafValues>
            1.5291032195091248e-01 -6.3106912374496460e-01</leafValues></_>
        <_>
          <internalNodes>
            0 -1 156 -2.2782925516366959e-03</internalNodes>
          <leafValues>
            -5.7552284002304077e-01 1.9433729350566864e-01</leafValues></_>
        <_>
          <internalNodes>
            0 -1 348 1.4815998729318380e-03</internalNodes>
          <leafValues>
            1.9161519408226013e-01 -4.9437111616134644e-01</leafValues></_>
        <_>
          <internalNodes>
            0 -1 72 -6.9253123365342617e-04</internalNodes>
          <leafValues>
            -6.5523117780685425e-01 1.5416422486305237e-01</leafValues></_>
        <_>
          <internalNodes>
            0 -1 530 -9.6430441772099584e-05</internalNodes>
          <leafValues>
            -4.0778189897537231e-01 2.5288867950439453e-01</leafValues></_>
        <_>
          <internalNodes>
            0 -1 516 2.2953802254050970e-03</internalNodes>
          <leafValues>
            -4.3855658173561096e-01 2.4986889958381653e-01</leafValues></_>
        <_>
          <internalNodes>
            0 -1 444 -2.7627911185845733e-04</internalNodes>
          <leafValues>
            -4.5240852236747742e-01 2.3020912706851959e-01</leafValues></_>
        <_>
          <internalNodes>
            0 -1 595 8.9493521954864264e-04</internalNodes>
          <leafValues>
            9.5506906509399414e-02 -8.1558346748352051e-01</leafValues></_>
        <_>
          <internalNodes>
            0 -1 338 -1.2032627128064632e-03</internalNodes>
          <leafValues>
            3.3229660987854004e-01 -2.8077566623687744e-01</leafValues></_>
        <_>
          <internalNodes>
            0 -1 570 -1.8248330801725388e-02</internalNodes>
          <leafValues>
            6.1046224832534790e-01 -1.7016720771789551e-01</leafValues></_>
        <_>
          <internalNodes>
            0 -1 604 3.4758148831315339e-04</internalNodes>
          <leafValues>
            1.9716936349868774e-01 -5.5963039398193359e-01</leafValues></_>
        <_>
          <internalNodes>
            0 -1 430 3.1307872268371284e-04</internalNodes>
          <leafValues>
            1.8901021778583527e-01 -4.6017968654632568e-01</leafValues></_></weakClassifiers></_>
    <!-- stage 6 -->
    <_>
      <maxWeakCount>22</maxWeakCount>
      <stageThreshold>-1.9291207790374756e+00</stageThreshold>
      <weakClassifiers>
        <_>
          <internalNodes>
            0 -1 298 -6.9524943828582764e-02</internalNodes>
          <leafValues>
            6.8768769502639771e-01 -4.8429751396179199e-01</leafValues></_>
        <_>
          <internalNodes>
            0 -1 168 -2.2338528186082840e-02</internalNodes>
          <leafValues>
            3.8427940011024475e-01 -4.4763067364692688e-01</leafValues></_>
        <_>
          <internalNodes>
            0 -1 368 1.6711696982383728e-02</internalNodes>
          <leafValues>
            -3.0090510845184326e-01 4.5719662308692932e-01</leafValues></_>
        <_>
          <internalNodes>
            0 -1 85 6.1643861234188080e-02</internalNodes>
          <leafValues>
            -2.8372582793235779e-01 4.5559802651405334e-01</leafValues></_>
        <_>
          <internalNodes>
            0 -1 297 -2.5124810636043549e-02</internalNodes>
          <leafValues>
            3.1793636083602905e-01 -3.4702828526496887e-01</leafValues></_>
        <_>
          <internalNodes>
            0 -1 35 -1.0730302892625332e-03</internalNodes>
          <leafValues>
            -6.3957536220550537e-01 2.3082859814167023e-01</leafValues></_>
        <_>
          <internalNodes>
            0 -1 32 -7.2019360959529877e-03</internalNodes>
          <leafValues>
            -8.8920861482620239e-01 8.0531992018222809e-02</leafValues></_>
        <_>
          <internalNodes>
            0 -1 408 -1.2939447537064552e-02</internalNodes>
          <leafValues>
            3.9225614070892334e-01 -2.9962596297264099e-01</leafValues></_>
        <_>
          <internalNodes>
            0 -1 129 -9.2332810163497925e-04</internalNodes>
          <leafValues>
            -7.8120857477188110e-01 1.7922104895114899e-01</leafValues></_>
        <_>
          <internalNodes>
            0 -1 583 2.2326926700770855e-03</internalNodes>
          <leafValues>
            1.1108592152595520e-01 -7.4190360307693481e-01</leafValues></_>
        <_>
          <internalNodes>
            0 -1 182 -2.3966557346284389e-03</internalNodes>
          <leafValues>
            -6.7203181982040405e-01 1.2597936391830444e-01</leafValues></_>
        <_>
          <internalNodes>
            0 -1 255 8.4397923201322556e-03</internalNodes>
          <leafValues>
            -2.3397855460643768e-01 4.8894315958023071e-01</leafValues></_>
        <_>
          <internalNodes>
            0 -1 123 -9.9373015109449625e-04</internalNodes>
          <leafValues>
            -4.8857885599136353e-01 1.9700288772583008e-01</leafValues></_>
        <_>
          <internalNodes>
            0 -1 186 -3.2175805419683456e-02</internalNodes>
          <leafValues>
            4.6781206130981445e-01 -2.0035608112812042e-01</leafValues></_>
        <_>
          <internalNodes>
            0 -1 483 4.9900310114026070e-03</internalNodes>
          <leafValues>
            1.0263566672801971e-01 -9.2625039815902710e-01</leafValues></_>
        <_>
          <internalNodes>
            0 -1 340 1.7171013168990612e-03</internalNodes>
          <leafValues>
            -3.6597222089767456e-01 2.3763640224933624e-01</leafValues></_>
        <_>
          <internalNodes>
            0 -1 137 -4.5182397589087486e-03</internalNodes>
          <leafValues>
            -6.8216383457183838e-01 1.3377189636230469e-01</leafValues></_>
        <_>
          <internalNodes>
            0 -1 361 2.2491291165351868e-02</internalNodes>
          <leafValues>
            -2.8722792863845825e-01 3.2855775952339172e-01</leafValues></_>
        <_>
          <internalNodes>
            0 -1 69 -3.0579566955566406e-03</internalNodes>
          <leafValues>
            -6.8368905782699585e-01 1.3602133095264435e-01</leafValues></_>
        <_>
          <internalNodes>
            0 -1 70 -6.1354162171483040e-03</internalNodes>
          <leafValues>
            -6.5381002426147461e-01 1.3033024966716766e-01</leafValues></_>
        <_>
          <internalNodes>
            0 -1 155 5.0505893304944038e-03</internalNodes>
          <leafValues>
            -2.8234475851058960e-01 3.4933650493621826e-01</leafValues></_>
        <_>
          <internalNodes>
            0 -1 396 1.1353915557265282e-02</internalNodes>
          <leafValues>
            1.7656320333480835e-01 -5.4981404542922974e-01</leafValues></_></weakClassifiers></_>
    <!-- stage 7 -->
    <_>
      <maxWeakCount>26</maxWeakCount>
      <stageThreshold>-1.7966890335083008e+00</stageThreshold>
      <weakClassifiers>
        <_>
          <internalNodes>
            0 -1 29 1.0433799028396606e-01</internalNodes>
          <leafValues>
            -4.0350878238677979e-01 6.0771703720092773e-01</leafValues></_>
        <_>
          <internalNodes>
            0 -1 313 6.6159525886178017e-03</internalNodes>
          <leafValues>
            -6.9184404611587524e-01 2.9576981067657471e-01</leafValues></_>
        <_>
          <internalNodes>
            0 -1 243 -1.5847103204578161e-03</internalNodes>
          <leafValues>
            2.7481424808502197e-01 -4.4609361886978149e-01</leafValues></_>
        <_>
          <internalNodes>
            0 -1 303 -7.4288318865001202e-03</internalNodes>
          <leafValues>
            2.8268620371818542e-01 -4.5387017726898193e-01</leafValues></_>
        <_>
          <internalNodes>
            0 -1 125 3.3888960024341941e-04</internalNodes>
          <leafValues>
            1.8799930810928345e-01 -4.9762126803398132e-01</leafValues></_>
        <_>
          <internalNodes>
            0 -1 445 -1.3560098595917225e-02</internalNodes>
          <leafValues>
            -8.6482852697372437e-01 1.2409600615501404e-01</leafValues></_>
        <_>
          <internalNodes>
            0 -1 77 5.9316545724868774e-02</internalNodes>
          <leafValues>
            -2.1755054593086243e-01 5.0070905685424805e-01</leafValues></_>
        <_>
          <internalNodes>
            0 -1 495 6.2981702387332916e-02</internalNodes>
          <leafValues>
            -1.4298494160175323e-01 6.6408163309097290e-01</leafValues></_>
        <_>
          <internalNodes>
            0 -1 175 -1.9223064184188843e-02</internalNodes>
          <leafValues>
            -8.1048071384429932e-01 1.1380372941493988e-01</leafValues></_>
        <_>
          <internalNodes>
            0 -1 562 -2.3140473291277885e-02</internalNodes>
          <leafValues>
            4.1691866517066956e-01 -1.9543366134166718e-01</leafValues></_>
        <_>
          <internalNodes>
            0 -1 441 1.8447421025484800e-03</internalNodes>
          <leafValues>
            1.2020899355411530e-01 -6.3848572969436646e-01</leafValues></_>
        <_>
          <internalNodes>
            0 -1 310 4.2139706201851368e-03</internalNodes>
          <leafValues>
            -4.8340994119644165e-01 1.2183399498462677e-01</leafValues></_>
        <_>
          <internalNodes>
            0 -1 459 4.4575289939530194e-04</internalNodes>
          <leafValues>
            1.6946510970592499e-01 -4.6072697639465332e-01</leafValues></_>
        <_>
          <internalNodes>
            0 -1 106 8.4655746817588806e-02</internalNodes>
          <leafValues>
            1.0607704520225525e-01 -7.0281744003295898e-01</leafValues></_>
        <_>
          <internalNodes>
            0 -1 304 -1.1393852531909943e-02</internalNodes>
          <leafValues>
            -4.4352245330810547e-01 1.6216897964477539e-01</leafValues></_>
        <_>
          <internalNodes>
            0 -1 192 -2.7208182960748672e-02</internalNodes>
          <leafValues>
            3.6153906583786011e-01 -2.2041246294975281e-01</leafValues></_>
        <_>
          <internalNodes>
            0 -1 601 -7.0312793832272291e-04</internalNodes>
          <leafValues>
            -3.7471523880958557e-01 2.1412062644958496e-01</leafValues></_>
        <_>
          <internalNodes>
            0 -1 104 1.7878144280984998e-03</internalNodes>
          <leafValues>
            1.4360192418098450e-01 -5.0562161207199097e-01</leafValues></_>
        <_>
          <internalNodes>
            0 -1 159 2.2320890799164772e-02</internalNodes>
          <leafValues>
            -3.4666118025779724e-01 2.2021242976188660e-01</leafValues></_>
        <_>
          <internalNodes>
            0 -1 357 -1.6172997653484344e-02</internalNodes>
          <leafValues>
            -7.6390320062637329e-01 9.2049226164817810e-02</leafValues></_>
        <_>
          <internalNodes>
            0 -1 515 -8.1187218893319368e-04</internalNodes>
          <leafValues>
            -6.1324501037597656e-01 1.0285741835832596e-01</leafValues></_>
        <_>
          <internalNodes>
            0 -1 286 3.7155859172344208e-04</internalNodes>
          <leafValues>
            -2.6344549655914307e-01 2.5913542509078979e-01</leafValues></_>
        <_>
          <internalNodes>
            0 -1 67 -1.9208088517189026e-02</internalNodes>
          <leafValues>
            -8.1930696964263916e-01 8.9890226721763611e-02</leafValues></_>
        <_>
          <internalNodes>
            0 -1 605 5.6709069758653641e-03</internalNodes>
          <leafValues>
            7.6498895883560181e-02 -7.1004915237426758e-01</leafValues></_>
        <_>
          <internalNodes>
            0 -1 222 -1.4426498091779649e-04</internalNodes>
          <leafValues>
            -4.3869575858116150e-01 1.5016502141952515e-01</leafValues></_>
        <_>
          <internalNodes>
            0 -1 210 1.7151917563751340e-04</internalNodes>
          <leafValues>
            2.1552328765392303e-01 -3.3826488256454468e-01</leafValues></_></weakClassifiers></_>
    <!-- stage 8 -->
    <_>
      <maxWeakCount>32</maxWeakCount>
      <stageThreshold>-2.0489966869354248e+00</stageThreshold>
      <weakClassifiers>
        <_>
          <internalNodes>
            0 -1 290 4.4455908238887787e-02</internalNodes>
          <leafValues>
            -4.6712803840637207e-01 5.7222223281860352e-01</leafValues></_>
        <_>
          <internalNodes>
            0 -1 207 -2.7522416785359383e-03</internalNodes>
          <leafValues>
            3.1723180413246155e-01 -5.6775689125061035e-01</leafValues></_>
        <_>
          <internalNodes>
            0 -1 431 -2.9477030038833618e-03</internalNodes>
          <leafValues>
            2.9028224945068359e-01 -4.8157718777656555e-01</leafValues></_>
        <_>
          <internalNodes>
            0 -1 62 3.7469312548637390e-02</internalNodes>
          <leafValues>
            -2.1740914881229401e-01 5.3346240520477295e-01</leafValues></_>
        <_>
          <internalNodes>
            0 -1 190 -3.7286993116140366e-02</internalNodes>
          <leafValues>
            2.8106594085693359e-01 -3.8009884953498840e-01</leafValues></_>
        <_>
          <internalNodes>
            0 -1 561 -6.2874481081962585e-02</internalNodes>
          <leafValues>
            5.7692235708236694e-01 -2.4958743155002594e-01</leafValues></_>
        <_>
          <internalNodes>
            0 -1 423 2.0545898005366325e-03</internalNodes>
          <leafValues>
            2.2455826401710510e-01 -6.0017132759094238e-01</leafValues></_>
        <_>
          <internalNodes>
            0 -1 379 -7.4479789473116398e-03</internalNodes>
          <leafValues>
            -8.6491417884826660e-01 9.6662588417530060e-02</leafValues></_>
        <_>
          <internalNodes>
            0 -1 41 -2.7692532166838646e-02</internalNodes>
          <leafValues>
            6.6040652990341187e-01 -1.9801016151905060e-01</leafValues></_>
        <_>
          <internalNodes>
            0 -1 381 -1.2287028133869171e-02</internalNodes>
          <leafValues>
            4.8393455147743225e-01 -2.0286637544631958e-01</leafValues></_>
        <_>
          <internalNodes>
            0 -1 268 -1.4797574840486050e-03</internalNodes>
          <leafValues>
            -8.3923906087875366e-01 1.1995824426412582e-01</leafValues></_>
        <_>
          <internalNodes>
            0 -1 264 1.3195846695452929e-03</internalNodes>
          <leafValues>
            1.4228771626949310e-01 -5.7161819934844971e-01</leafValues></_>
        <_>
          <internalNodes>
            0 -1 98 -3.2690785825252533e-02</internalNodes>
          <leafValues>
            -6.0253006219863892e-01 1.2678608298301697e-01</leafValues></_>
        <_>
          <internalNodes>
            0 -1 363 -1.5264089452102780e-03</internalNodes>
          <leafValues>
            2.3560680449008942e-01 -3.5664710402488708e-01</leafValues></_>
        <_>
          <internalNodes>
            0 -1 607 1.3319579884409904e-03</internalNodes>
          <leafValues>
            1.2887878715991974e-01 -6.4152961969375610e-01</leafValues></_>
        <_>
          <internalNodes>
            0 -1 66 1.4638947322964668e-03</internalNodes>
          <leafValues>
            1.5432049334049225e-01 -4.5335239171981812e-01</leafValues></_>
        <_>
          <internalNodes>
            0 -1 26 2.4845816195011139e-02</internalNodes>
          <leafValues>
            -2.2137784957885742e-01 4.0225437283515930e-01</leafValues></_>
        <_>
          <internalNodes>
            0 -1 410 -2.4442649446427822e-03</internalNodes>
          <leafValues>
            4.9961832165718079e-01 -1.7461538314819336e-01</leafValues></_>
        <_>
          <internalNodes>
            0 -1 331 5.4112853831611574e-05</internalNodes>
          <leafValues>
            2.4336516857147217e-01 -3.4998252987861633e-01</leafValues></_>
        <_>
          <internalNodes>
            0 -1 540 -1.2191873975098133e-03</internalNodes>
          <leafValues>
            3.8117146492004395e-01 -2.6507359743118286e-01</leafValues></_>
        <_>
          <internalNodes>
            0 -1 328 -3.0193021520972252e-03</internalNodes>
          <leafValues>
            -6.7739331722259521e-01 1.4077056944370270e-01</leafValues></_>
        <_>
          <internalNodes>
            0 -1 269 -1.5251499135047197e-03</internalNodes>
          <leafValues>
            -6.3211429119110107e-01 9.5254130661487579e-02</leafValues></_>
        <_>
          <internalNodes>
            0 -1 527 -1.6635910142213106e-03</internalNodes>
          <leafValues>
            -6.2784087657928467e-01 1.0717180371284485e-01</leafValues></_>
        <_>
          <internalNodes>
            0 -1 320 -4.7217272222042084e-03</internalNodes>
          <leafValues>
            4.3790036439895630e-01 -1.8112990260124207e-01</leafValues></_>
        <_>
          <internalNodes>
            0 -1 27 -2.6637284085154533e-02</internalNodes>
          <leafValues>
            8.2679980993270874e-01 -7.5917460024356842e-02</leafValues></_>
        <_>
          <internalNodes>
            0 -1 82 2.7113188989460468e-03</internalNodes>
          <leafValues>
            2.2214883565902710e-01 -3.5161992907524109e-01</leafValues></_>
        <_>
          <internalNodes>
            0 -1 541 -1.0736204683780670e-02</internalNodes>
          <leafValues>
            6.1431980133056641e-01 -1.1683410406112671e-01</leafValues></_>
        <_>
          <internalNodes>
            0 -1 233 -1.0325832990929484e-03</internalNodes>
          <leafValues>
            -4.2497575283050537e-01 1.8475054204463959e-01</leafValues></_>
        <_>
          <internalNodes>
            0 -1 470 -1.0775264818221331e-03</internalNodes>
          <leafValues>
            3.7673610448837280e-01 -2.2988474369049072e-01</leafValues></_>
        <_>
          <internalNodes>
            0 -1 63 -8.6605295538902283e-02</internalNodes>
          <leafValues>
            -9.4290751218795776e-01 7.4315190315246582e-02</leafValues></_>
        <_>
          <internalNodes>
            0 -1 351 1.3685904559679329e-04</internalNodes>
          <leafValues>
            1.9866394996643066e-01 -3.8781344890594482e-01</leafValues></_>
        <_>
          <internalNodes>
            0 -1 486 -3.2225321047008038e-03</internalNodes>
          <leafValues>
            -8.4719580411911011e-01 7.7025033533573151e-02</leafValues></_></weakClassifiers></_>
    <!-- stage 9 -->
    <_>
      <maxWeakCount>25</maxWeakCount>
      <stageThreshold>-1.8040194511413574e+00</stageThreshold>
      <weakClassifiers>
        <_>
          <internalNodes>
            0 -1 53 4.4254437088966370e-02</internalNodes>
          <leafValues>
            -5.0920248031616211e-01 4.1202673316001892e-01</leafValues></_>
        <_>
          <internalNodes>
            0 -1 20 5.7915247976779938e-02</internalNodes>
          <leafValues>
            -3.3723807334899902e-01 4.2681437730789185e-01</leafValues></_>
        <_>
          <internalNodes>
            0 -1 93 1.3464755378663540e-02</internalNodes>
          <leafValues>
            -3.1759700179100037e-01 3.5986411571502686e-01</leafValues></_>
        <_>
          <internalNodes>
            0 -1 386 -5.1642265170812607e-03</internalNodes>
          <leafValues>
            -6.5249991416931152e-01 1.6131554543972015e-01</leafValues></_>
        <_>
          <internalNodes>
            0 -1 380 3.5061473026871681e-03</internalNodes>
          <leafValues>
            -2.9374054074287415e-01 3.5225826501846313e-01</leafValues></_>
        <_>
          <internalNodes>
            0 -1 484 -4.9396799877285957e-03</internalNodes>
          <leafValues>
            -8.1441813707351685e-01 1.0526649653911591e-01</leafValues></_>
        <_>
          <internalNodes>
            0 -1 329 -7.9519646242260933e-03</internalNodes>
          <leafValues>
            -8.0835556983947754e-01 8.6172625422477722e-02</leafValues></_>
        <_>
          <internalNodes>
            0 -1 100 6.1246868222951889e-02</internalNodes>
          <leafValues>
            -3.9332106709480286e-01 2.2405102849006653e-01</leafValues></_>
        <_>
          <internalNodes>
            0 -1 138 4.9366796156391501e-04</internalNodes>
          <leafValues>
            1.6138991713523865e-01 -5.7001352310180664e-01</leafValues></_>
        <_>
          <internalNodes>
            0 -1 19 -2.3026803974062204e-03</internalNodes>
          <leafValues>
            -5.7444560527801514e-01 1.2130069732666016e-01</leafValues></_>
        <_>
          <internalNodes>
            0 -1 169 6.8789161741733551e-03</internalNodes>
          <leafValues>
            1.4443419873714447e-01 -5.9512132406234741e-01</leafValues></_>
        <_>
          <internalNodes>
            0 -1 559 -3.7730377167463303e-02</internalNodes>
          <leafValues>
            4.9055972695350647e-01 -1.8560430407524109e-01</leafValues></_>
        <_>
          <internalNodes>
            0 -1 500 -8.4903333336114883e-03</internalNodes>
          <leafValues>
            -5.3793281316757202e-01 1.6550113260746002e-01</leafValues></_>
        <_>
          <internalNodes>
            0 -1 197 -1.3386769220232964e-02</internalNodes>
          <leafValues>
            -6.8007731437683105e-01 1.1669567227363586e-01</leafValues></_>
        <_>
          <internalNodes>
            0 -1 390 3.1738505640532821e-05</internalNodes>
          <leafValues>
            -3.8408949971199036e-01 1.9813512265682220e-01</leafValues></_>
        <_>
          <internalNodes>
            0 -1 150 9.3637243844568729e-04</internalNodes>
          <leafValues>
            1.4949977397918701e-01 -5.4309314489364624e-01</leafValues></_>
        <_>
          <internalNodes>
            0 -1 239 9.5097105950117111e-03</internalNodes>
          <leafValues>
            -4.2341053485870361e-01 2.0793749392032623e-01</leafValues></_>
        <_>
          <internalNodes>
            0 -1 440 -8.8362552924081683e-04</internalNodes>
          <leafValues>
            -4.0994662046432495e-01 1.9683359563350677e-01</leafValues></_>
        <_>
          <internalNodes>
            0 -1 585 2.7050945907831192e-02</internalNodes>
          <leafValues>
            -1.0533355921506882e-01 7.5658923387527466e-01</leafValues></_>
        <_>
          <internalNodes>
            0 -1 479 1.3009099347982556e-05</internalNodes>
          <leafValues>
            -2.0792964100837708e-01 3.9547026157379150e-01</leafValues></_>
        <_>
          <internalNodes>
            0 -1 200 4.3723710405174643e-05</internalNodes>
          <leafValues>
            -2.6043653488159180e-01 3.0378594994544983e-01</leafValues></_>
        <_>
          <internalNodes>
            0 -1 355 5.9299026615917683e-03</internalNodes>
          <leafValues>
            1.0451335459947586e-01 -8.9140164852142334e-01</leafValues></_>
        <_>
          <internalNodes>
            0 -1 382 1.5497094864258543e-05</internalNodes>
          <leafValues>
            -2.4323792755603790e-01 3.1454750895500183e-01</leafValues></_>
        <_>
          <internalNodes>
            0 -1 483 4.1705323383212090e-03</internalNodes>
          <leafValues>
            9.4267025589942932e-02 -7.7831763029098511e-01</leafValues></_>
        <_>
          <internalNodes>
            0 -1 569 -3.1793996458873153e-04</internalNodes>
          <leafValues>
            -3.1564572453498840e-01 2.4993166327476501e-01</leafValues></_></weakClassifiers></_>
    <!-- stage 10 -->
    <_>
      <maxWeakCount>23</maxWeakCount>
      <stageThreshold>-1.6414978504180908e+00</stageThreshold>
      <weakClassifiers>
        <_>
          <internalNodes>
            0 -1 456 1.3009099347982556e-05</internalNodes>
          <leafValues>
            -4.5279383659362793e-01 4.0811455249786377e-01</leafValues></_>
        <_>
          <internalNodes>
            0 -1 442 1.3466362361214124e-05</internalNodes>
          <leafValues>
            -4.0156069397926331e-01 3.8969534635543823e-01</leafValues></_>
        <_>
          <internalNodes>
            0 -1 49 4.8371277749538422e-02</internalNodes>
          <leafValues>
            -5.9859484434127808e-01 2.3929750919342041e-01</leafValues></_>
        <_>
          <internalNodes>
            0 -1 294 1.6373551261494868e-05</internalNodes>
          <leafValues>
            -3.1940925121307373e-01 4.2635977268218994e-01</leafValues></_>
        <_>
          <internalNodes>
            0 -1 453 -1.6979582142084837e-05</internalNodes>
          <leafValues>
            3.6501750349998474e-01 -2.9732480645179749e-01</leafValues></_>
        <_>
          <internalNodes>
            0 -1 296 -7.7797221019864082e-03</internalNodes>
          <leafValues>
            -7.6356500387191772e-01 1.3137131929397583e-01</leafValues></_>
        <_>
          <internalNodes>
            0 -1 387 1.1966558173298836e-02</internalNodes>
          <leafValues>
            1.1420806497335434e-01 -8.3151245117187500e-01</leafValues></_>
        <_>
          <internalNodes>
            0 -1 429 -1.3009099347982556e-05</internalNodes>
          <leafValues>
            3.0138891935348511e-01 -3.3462214469909668e-01</leafValues></_>
        <_>
          <internalNodes>
            0 -1 385 -8.6110143456608057e-04</internalNodes>
          <leafValues>
            -5.3239387273788452e-01 1.7960472404956818e-01</leafValues></_>
        <_>
          <internalNodes>
            0 -1 249 -1.1709911632351577e-05</internalNodes>
          <leafValues>
            4.0451958775520325e-01 -2.7038940787315369e-01</leafValues></_>
        <_>
          <internalNodes>
            0 -1 282 -1.4999755876488052e-05</internalNodes>
          <leafValues>
            4.2894589900970459e-01 -2.4826769530773163e-01</leafValues></_>
        <_>
          <internalNodes>
            0 -1 555 -1.3466362361214124e-05</internalNodes>
          <leafValues>
            4.1972067952156067e-01 -2.2557431459426880e-01</leafValues></_>
        <_>
          <internalNodes>
            0 -1 419 -7.3793707415461540e-03</internalNodes>
          <leafValues>
            -4.9468234181404114e-01 1.9801661372184753e-01</leafValues></_>
        <_>
          <internalNodes>
            0 -1 95 -1.3116680085659027e-02</internalNodes>
          <leafValues>
            -7.4186611175537109e-01 9.6980832517147064e-02</leafValues></_>
        <_>
          <internalNodes>
            0 -1 523 4.4394377619028091e-03</internalNodes>
          <leafValues>
            9.4489991664886475e-02 -7.3678928613662720e-01</leafValues></_>
        <_>
          <internalNodes>
            0 -1 74 1.5748700127005577e-02</internalNodes>
          <leafValues>
            1.1513397097587585e-01 -6.0162669420242310e-01</leafValues></_>
        <_>
          <internalNodes>
            0 -1 507 9.9492503795772791e-04</internalNodes>
          <leafValues>
            1.8577532470226288e-01 -4.2176994681358337e-01</leafValues></_>
        <_>
          <internalNodes>
            0 -1 434 1.9720171621884219e-05</internalNodes>
          <leafValues>
            -2.3389214277267456e-01 3.8406011462211609e-01</leafValues></_>
        <_>
          <internalNodes>
            0 -1 467 -2.2112200967967510e-03</internalNodes>
          <leafValues>
            -5.3648155927658081e-01 2.2109901905059814e-01</leafValues></_>
        <_>
          <internalNodes>
            0 -1 185 1.3307163491845131e-02</internalNodes>
          <leafValues>
            -2.8751772642135620e-01 2.7573865652084351e-01</leafValues></_>
        <_>
          <internalNodes>
            0 -1 223 -1.9741581752896309e-02</internalNodes>
          <leafValues>
            -9.0803116559982300e-01 8.2441695034503937e-02</leafValues></_>
        <_>
          <internalNodes>
            0 -1 323 -4.0221894159913063e-03</internalNodes>
          <leafValues>
            -5.6794291734695435e-01 1.0849452763795853e-01</leafValues></_>
        <_>
          <internalNodes>
            0 -1 151 1.4536881353706121e-03</internalNodes>
          <leafValues>
            5.0083297491073608e-01 -1.8124166131019592e-01</leafValues></_></weakClassifiers></_>
    <!-- stage 11 -->
    <_>
      <maxWeakCount>33</maxWeakCount>
      <stageThreshold>-1.8454203605651855e+00</stageThreshold>
      <weakClassifiers>
        <_>
          <internalNodes>
            0 -1 372 1.5351271256804466e-02</internalNodes>
          <leafValues>
            -3.9795917272567749e-01 4.8571428656578064e-01</leafValues></_>
        <_>
          <internalNodes>
            0 -1 81 1.2670847773551941e-01</internalNodes>
          <leafValues>
            -4.0063863992691040e-01 3.5614040493965149e-01</leafValues></_>
        <_>
          <internalNodes>
            0 -1 160 1.6563113778829575e-02</internalNodes>
          <leafValues>
            -4.0049427747726440e-01 2.6680848002433777e-01</leafValues></_>
        <_>
          <internalNodes>
            0 -1 188 1.1695924401283264e-01</internalNodes>
          <leafValues>
            1.9610397517681122e-01 -6.4499723911285400e-01</leafValues></_>
        <_>
          <internalNodes>
            0 -1 146 5.7559706270694733e-02</internalNodes>
          <leafValues>
            -2.3212732374668121e-01 5.4706645011901855e-01</leafValues></_>
        <_>
          <internalNodes>
            0 -1 587 -1.5497094864258543e-05</internalNodes>
          <leafValues>
            3.6837431788444519e-01 -2.1837860345840454e-01</leafValues></_>
        <_>
          <internalNodes>
            0 -1 568 1.5497094864258543e-05</internalNodes>
          <leafValues>
            -2.2934709489345551e-01 3.5644778609275818e-01</leafValues></_>
        <_>
          <internalNodes>
            0 -1 556 1.4898928384354804e-05</internalNodes>
          <leafValues>
            -2.3742938041687012e-01 3.4800115227699280e-01</leafValues></_>
        <_>
          <internalNodes>
            0 -1 158 2.0146068185567856e-02</internalNodes>
          <leafValues>
            1.2504240870475769e-01 -6.5397155284881592e-01</leafValues></_>
        <_>
          <internalNodes>
            0 -1 110 1.3190675526857376e-03</internalNodes>
          <leafValues>
            1.5071877837181091e-01 -4.8396030068397522e-01</leafValues></_>
        <_>
          <internalNodes>
            0 -1 376 -1.3466362361214124e-05</internalNodes>
          <leafValues>
            3.0324968695640564e-01 -2.4433207511901855e-01</leafValues></_>
        <_>
          <internalNodes>
            0 -1 548 -2.1019697189331055e-02</internalNodes>
          <leafValues>
            -6.7594814300537109e-01 1.2696807086467743e-01</leafValues></_>
        <_>
          <internalNodes>
            0 -1 124 -3.2460740767419338e-03</internalNodes>
          <leafValues>
            2.4769851565361023e-01 -2.8595945239067078e-01</leafValues></_>
        <_>
          <internalNodes>
            0 -1 279 -2.6397472247481346e-02</internalNodes>
          <leafValues>
            -8.1497251987457275e-01 6.9336637854576111e-02</leafValues></_>
        <_>
          <internalNodes>
            0 -1 447 3.3412687480449677e-03</internalNodes>
          <leafValues>
            1.6816335916519165e-01 -3.8688197731971741e-01</leafValues></_>
        <_>
          <internalNodes>
            0 -1 462 8.0115528544411063e-04</internalNodes>
          <leafValues>
            -2.1222899854183197e-01 3.8011914491653442e-01</leafValues></_>
        <_>
          <internalNodes>
            0 -1 285 1.5524046495556831e-02</internalNodes>
          <leafValues>
            8.5283435881137848e-02 -7.7768880128860474e-01</leafValues></_>
        <_>
          <internalNodes>
            0 -1 451 2.0416774787008762e-03</internalNodes>
          <leafValues>
            1.2476638704538345e-01 -4.6346014738082886e-01</leafValues></_>
        <_>
          <internalNodes>
            0 -1 209 1.4501460827887058e-04</internalNodes>
          <leafValues>
            -2.8306463360786438e-01 2.2060714662075043e-01</leafValues></_>
        <_>
          <internalNodes>
            0 -1 610 -1.3004350475966930e-03</internalNodes>
          <leafValues>
            -4.0861275792121887e-01 1.5254312753677368e-01</leafValues></_>
        <_>
          <internalNodes>
            0 -1 339 3.6912985146045685e-02</internalNodes>
          <leafValues>
            -1.2304050475358963e-01 5.1514613628387451e-01</leafValues></_>
        <_>
          <internalNodes>
            0 -1 45 -2.1684400271624327e-03</internalNodes>
          <leafValues>
            -4.2738729715347290e-01 1.7066723108291626e-01</leafValues></_>
        <_>
          <internalNodes>
            0 -1 114 3.1089195981621742e-02</internalNodes>
          <leafValues>
            -2.0414498448371887e-01 3.5237026214599609e-01</leafValues></_>
        <_>
          <internalNodes>
            0 -1 212 1.0721625294536352e-03</internalNodes>
          <leafValues>
            1.8541802465915680e-01 -3.5267245769500732e-01</leafValues></_>
        <_>
          <internalNodes>
            0 -1 448 -4.8529086634516716e-03</internalNodes>
          <leafValues>
            -7.2620713710784912e-01 8.6065493524074554e-02</leafValues></_>
        <_>
          <internalNodes>
            0 -1 220 -1.5869252820266411e-05</internalNodes>
          <leafValues>
            3.3152028918266296e-01 -2.0734612643718719e-01</leafValues></_>
        <_>
          <internalNodes>
            0 -1 409 6.5041589550673962e-05</internalNodes>
          <leafValues>
            -1.7415215075016022e-01 3.7695533037185669e-01</leafValues></_>
        <_>
          <internalNodes>
            0 -1 532 -3.0999979935586452e-03</internalNodes>
          <leafValues>
            -4.0420100092887878e-01 1.6323752701282501e-01</leafValues></_>
        <_>
          <internalNodes>
            0 -1 291 -1.1853672331199050e-03</internalNodes>
          <leafValues>
            -7.1582949161529541e-01 9.3190468847751617e-02</leafValues></_>
        <_>
          <internalNodes>
            0 -1 171 1.8911790102720261e-02</internalNodes>
          <leafValues>
            -2.3294684290885925e-01 3.1319227814674377e-01</leafValues></_>
        <_>
          <internalNodes>
            0 -1 202 -2.9625343158841133e-02</internalNodes>
          <leafValues>
            -9.0154826641082764e-01 8.9271500706672668e-02</leafValues></_>
        <_>
          <internalNodes>
            0 -1 506 1.0257211979478598e-03</internalNodes>
          <leafValues>
            1.1663946509361267e-01 -5.2144408226013184e-01</leafValues></_>
        <_>
          <internalNodes>
            0 -1 545 -7.1855285204946995e-04</internalNodes>
          <leafValues>
            -5.1490461826324463e-01 1.3475395739078522e-01</leafValues></_></weakClassifiers></_>
    <!-- stage 12 -->
    <_>
      <maxWeakCount>70</maxWeakCount>
      <stageThreshold>-2.5762310028076172e+00</stageThreshold>
      <weakClassifiers>
        <_>
          <internalNodes>
            0 -1 301 -1.8316186964511871e-02</internalNodes>
          <leafValues>
            4.0619307756423950e-01 -7.3778921365737915e-01</leafValues></_>
        <_>
          <internalNodes>
            0 -1 326 1.0301226750016212e-02</internalNodes>
          <leafValues>
            -7.2738105058670044e-01 2.7434670925140381e-01</leafValues></_>
        <_>
          <internalNodes>
            0 -1 76 2.9928553849458694e-02</internalNodes>
          <leafValues>
            -3.2410296797752380e-01 5.9013307094573975e-01</leafValues></_>
        <_>
          <internalNodes>
            0 -1 247 -2.8453783597797155e-03</internalNodes>
          <leafValues>
            3.2437804341316223e-01 -4.1512796282768250e-01</leafValues></_>
        <_>
          <internalNodes>
            0 -1 113 2.3661438375711441e-02</internalNodes>
          <leafValues>
            -2.1431498229503632e-01 4.7127249836921692e-01</leafValues></_>
        <_>
          <internalNodes>
            0 -1 324 -7.7535756863653660e-03</internalNodes>
          <leafValues>
            -4.4926789402961731e-01 2.4283172190189362e-01</leafValues></_>
        <_>
          <internalNodes>
            0 -1 388 1.3050412759184837e-02</internalNodes>
          <leafValues>
            -3.1983414292335510e-01 3.0797320604324341e-01</leafValues></_>
        <_>
          <internalNodes>
            0 -1 54 -7.3406565934419632e-04</internalNodes>
          <leafValues>
            -5.5172199010848999e-01 2.0770215988159180e-01</leafValues></_>
        <_>
          <internalNodes>
            0 -1 280 1.0761815356090665e-03</internalNodes>
          <leafValues>
            1.0049265623092651e-01 -7.3113930225372314e-01</leafValues></_>
        <_>
          <internalNodes>
            0 -1 89 -1.9988868385553360e-02</internalNodes>
          <leafValues>
            7.2541737556457520e-01 -1.8998293578624725e-01</leafValues></_>
        <_>
          <internalNodes>
            0 -1 517 3.9305143058300018e-02</internalNodes>
          <leafValues>
            2.2354078292846680e-01 -6.0794115066528320e-01</leafValues></_>
        <_>
          <internalNodes>
            0 -1 318 -8.4181030979380012e-04</internalNodes>
          <leafValues>
            2.3184195160865784e-01 -3.3740830421447754e-01</leafValues></_>
        <_>
          <internalNodes>
            0 -1 433 -1.5309527516365051e-02</internalNodes>
          <leafValues>
            -7.7121365070343018e-01 1.8922077119350433e-01</leafValues></_>
        <_>
          <internalNodes>
            0 -1 400 -2.7170735411345959e-03</internalNodes>
          <leafValues>
            3.0499261617660522e-01 -3.2936048507690430e-01</leafValues></_>
        <_>
          <internalNodes>
            0 -1 574 -1.3490980491042137e-03</internalNodes>
          <leafValues>
            -5.2694147825241089e-01 2.0405644178390503e-01</leafValues></_>
        <_>
          <internalNodes>
            0 -1 354 2.3548132739961147e-03</internalNodes>
          <leafValues>
            -2.0818470418453217e-01 5.4757994413375854e-01</leafValues></_>
        <_>
          <internalNodes>
            0 -1 64 -7.8184958547353745e-03</internalNodes>
          <leafValues>
            5.5532842874526978e-01 -1.2427227199077606e-01</leafValues></_>
        <_>
          <internalNodes>
            0 -1 332 -3.9415072649717331e-02</internalNodes>
          <leafValues>
            -6.8994569778442383e-01 1.3330376148223877e-01</leafValues></_>
        <_>
          <internalNodes>
            0 -1 592 5.4575823014602065e-05</internalNodes>
          <leafValues>
            1.9747358560562134e-01 -3.3846321702003479e-01</leafValues></_>
        <_>
          <internalNodes>
            0 -1 549 -7.3968067765235901e-02</internalNodes>
          <leafValues>
            5.6581795215606689e-01 -1.2696024775505066e-01</leafValues></_>
        <_>
          <internalNodes>
            0 -1 346 1.9228594377636909e-02</internalNodes>
          <leafValues>
            -2.0655046403408051e-01 3.3531138300895691e-01</leafValues></_>
        <_>
          <internalNodes>
            0 -1 494 -1.1598502751439810e-03</internalNodes>
          <leafValues>
            -3.2946211099624634e-01 2.3453153669834137e-01</leafValues></_>
        <_>
          <internalNodes>
            0 -1 115 8.8288653641939163e-03</internalNodes>
          <leafValues>
            -1.7291702330112457e-01 4.4263264536857605e-01</leafValues></_>
        <_>
          <internalNodes>
            0 -1 52 8.5401050746440887e-02</internalNodes>
          <leafValues>
            9.9974654614925385e-02 -7.6186788082122803e-01</leafValues></_>
        <_>
          <internalNodes>
            0 -1 499 -7.2120665572583675e-03</internalNodes>
          <leafValues>
            5.1390451192855835e-01 -1.4859788119792938e-01</leafValues></_>
        <_>
          <internalNodes>
            0 -1 389 -1.2826530728489161e-03</internalNodes>
          <leafValues>
            -5.8098745346069336e-01 1.2340553849935532e-01</leafValues></_>
        <_>
          <internalNodes>
            0 -1 34 -5.4138572886586189e-04</internalNodes>
          <leafValues>
            -4.7918072342872620e-01 1.3868515193462372e-01</leafValues></_>
        <_>
          <internalNodes>
            0 -1 289 -1.3651801273226738e-02</internalNodes>
          <leafValues>
            8.4465837478637695e-01 -8.7865196168422699e-02</leafValues></_>
        <_>
          <internalNodes>
            0 -1 204 -2.3047551803756505e-04</internalNodes>
          <leafValues>
            -4.6569144725799561e-01 1.5544976294040680e-01</leafValues></_>
        <_>
          <internalNodes>
            0 -1 47 2.9179379343986511e-02</internalNodes>
          <leafValues>
            -3.3961641788482666e-01 1.8219502270221710e-01</leafValues></_>
        <_>
          <internalNodes>
            0 -1 83 -2.5055420398712158e-01</internalNodes>
          <leafValues>
            -7.4395978450775146e-01 9.2857986688613892e-02</leafValues></_>
        <_>
          <internalNodes>
            0 -1 437 1.7768158577382565e-03</internalNodes>
          <leafValues>
            -1.7099325358867645e-01 3.7212738394737244e-01</leafValues></_>
        <_>
          <internalNodes>
            0 -1 560 -9.6809664682950824e-05</internalNodes>
          <leafValues>
            -3.9790225028991699e-01 1.7245224118232727e-01</leafValues></_>
        <_>
          <internalNodes>
            0 -1 111 -2.0067967474460602e-02</internalNodes>
          <leafValues>
            -8.5898202657699585e-01 6.2971718609333038e-02</leafValues></_>
        <_>
          <internalNodes>
            0 -1 365 -2.1807093173265457e-02</internalNodes>
          <leafValues>
            2.7781102061271667e-01 -2.1229434013366699e-01</leafValues></_>
        <_>
          <internalNodes>
            0 -1 99 -6.0905294958502054e-04</internalNodes>
          <leafValues>
            -5.8576130867004395e-01 1.2462339550256729e-01</leafValues></_>
        <_>
          <internalNodes>
            0 -1 582 1.2854384840466082e-04</internalNodes>
          <leafValues>
            1.8062651157379150e-01 -3.3320054411888123e-01</leafValues></_>
        <_>
          <internalNodes>
            0 -1 172 2.8145750984549522e-02</internalNodes>
          <leafValues>
            6.6426143050193787e-02 -9.3964165449142456e-01</leafValues></_>
        <_>
          <internalNodes>
            0 -1 216 5.6200083345174789e-03</internalNodes>
          <leafValues>
            -1.6298818588256836e-01 4.1540175676345825e-01</leafValues></_>
        <_>
          <internalNodes>
            0 -1 101 3.4890545066446066e-04</internalNodes>
          <leafValues>
            1.4150728285312653e-01 -4.2716589570045471e-01</leafValues></_>
        <_>
          <internalNodes>
            0 -1 36 -3.5272326320409775e-02</internalNodes>
          <leafValues>
            6.3865685462951660e-01 -1.0556770861148834e-01</leafValues></_>
        <_>
          <internalNodes>
            0 -1 309 -2.0044374105054885e-04</internalNodes>
          <leafValues>
            -5.8262592554092407e-01 1.2510220706462860e-01</leafValues></_>
        <_>
          <internalNodes>
            0 -1 498 -1.8251535948365927e-03</internalNodes>
          <leafValues>
            5.1806443929672241e-01 -1.5548926591873169e-01</leafValues></_>
        <_>
          <internalNodes>
            0 -1 477 6.1811879277229309e-03</internalNodes>
          <leafValues>
            8.2644537091255188e-02 -8.5599440336227417e-01</leafValues></_>
        <_>
          <internalNodes>
            0 -1 174 1.4164118096232414e-02</internalNodes>
          <leafValues>
            -1.7943382263183594e-01 3.7726756930351257e-01</leafValues></_>
        <_>
          <internalNodes>
            0 -1 319 4.6189064159989357e-03</internalNodes>
          <leafValues>
            7.9151257872581482e-02 -8.3948612213134766e-01</leafValues></_>
        <_>
          <internalNodes>
            0 -1 537 1.9614162738434970e-04</internalNodes>
          <leafValues>
            1.0779970139265060e-01 -4.7268310189247131e-01</leafValues></_>
        <_>
          <internalNodes>
            0 -1 253 9.9873146973550320e-04</internalNodes>
          <leafValues>
            -1.4735284447669983e-01 3.5886582732200623e-01</leafValues></_>
        <_>
          <internalNodes>
            0 -1 141 -2.1108854562044144e-02</internalNodes>
          <leafValues>
            -6.5531003475189209e-01 9.6710525453090668e-02</leafValues></_>
        <_>
          <internalNodes>
            0 -1 274 -1.4870459213852882e-02</internalNodes>
          <leafValues>
            8.8078761100769043e-01 -6.9393135607242584e-02</leafValues></_>
        <_>
          <internalNodes>
            0 -1 341 -4.6924367779865861e-05</internalNodes>
          <leafValues>
            -4.5195782184600830e-01 1.2619392573833466e-01</leafValues></_>
        <_>
          <internalNodes>
            0 -1 170 -5.8556823059916496e-03</internalNodes>
          <leafValues>
            2.5632122159004211e-01 -2.3673890531063080e-01</leafValues></_>
        <_>
          <internalNodes>
            0 -1 524 -1.0822944750543684e-04</internalNodes>
          <leafValues>
            -3.6890664696693420e-01 1.6348250210285187e-01</leafValues></_>
        <_>
          <internalNodes>
            0 -1 534 -1.6333941603079438e-03</internalNodes>
          <leafValues>
            -7.7276521921157837e-01 6.7724831402301788e-02</leafValues></_>
        <_>
          <internalNodes>
            0 -1 39 1.6297865658998489e-02</internalNodes>
          <leafValues>
            -9.8546676337718964e-02 6.6312044858932495e-01</leafValues></_>
        <_>
          <internalNodes>
            0 -1 131 4.4854976236820221e-02</internalNodes>
          <leafValues>
            5.5462110787630081e-02 -8.7272292375564575e-01</leafValues></_>
        <_>
          <internalNodes>
            0 -1 580 1.4920094981789589e-02</internalNodes>
          <leafValues>
            -1.0508868098258972e-01 4.7680577635765076e-01</leafValues></_>
        <_>
          <internalNodes>
            0 -1 203 -1.2682446686085314e-04</internalNodes>
          <leafValues>
            -5.9174501895904541e-01 8.5173025727272034e-02</leafValues></_>
        <_>
          <internalNodes>
            0 -1 359 -1.0306609794497490e-02</internalNodes>
          <leafValues>
            3.4186488389968872e-01 -1.2936432659626007e-01</leafValues></_>
        <_>
          <internalNodes>
            0 -1 1 -8.7140849791467190e-04</internalNodes>
          <leafValues>
            -5.2643233537673950e-01 1.0131403058767319e-01</leafValues></_>
        <_>
          <internalNodes>
            0 -1 432 8.1526137888431549e-02</internalNodes>
          <leafValues>
            6.5584443509578705e-02 -8.8316810131072998e-01</leafValues></_>
        <_>
          <internalNodes>
            0 -1 401 -2.6475286576896906e-03</internalNodes>
          <leafValues>
            3.5579201579093933e-01 -1.3161820173263550e-01</leafValues></_>
        <_>
          <internalNodes>
            0 -1 24 1.8747217953205109e-02</internalNodes>
          <leafValues>
            1.2311405688524246e-01 -3.9672559499740601e-01</leafValues></_>
        <_>
          <internalNodes>
            0 -1 130 -6.9092528428882360e-04</internalNodes>
          <leafValues>
            3.8618642091751099e-01 -1.2220849096775055e-01</leafValues></_>
        <_>
          <internalNodes>
            0 -1 143 -5.9896754100918770e-04</internalNodes>
          <leafValues>
            -6.5969288349151611e-01 7.5606942176818848e-02</leafValues></_>
        <_>
          <internalNodes>
            0 -1 394 -1.0084328241646290e-03</internalNodes>
          <leafValues>
            -8.5968762636184692e-01 4.4218901544809341e-02</leafValues></_>
        <_>
          <internalNodes>
            0 -1 531 3.6804121918976307e-04</internalNodes>
          <leafValues>
            -1.3946318626403809e-01 3.2361322641372681e-01</leafValues></_>
        <_>
          <internalNodes>
            0 -1 211 3.3609961974434555e-05</internalNodes>
          <leafValues>
            1.2196844071149826e-01 -4.3603378534317017e-01</leafValues></_>
        <_>
          <internalNodes>
            0 -1 248 2.6823254302144051e-03</internalNodes>
          <leafValues>
            -6.7610666155815125e-02 6.2876886129379272e-01</leafValues></_>
        <_>
          <internalNodes>
            0 -1 225 1.0369159281253815e-01</internalNodes>
          <leafValues>
            5.4801691323518753e-02 -8.2016766071319580e-01</leafValues></_></weakClassifiers></_>
    <!-- stage 13 -->
    <_>
      <maxWeakCount>22</maxWeakCount>
      <stageThreshold>-1.2653522491455078e+00</stageThreshold>
      <weakClassifiers>
        <_>
          <internalNodes>
            0 -1 372 2.4302320554852486e-02</internalNodes>
          <leafValues>
            -3.1556802988052368e-01 7.1555554866790771e-01</leafValues></_>
        <_>
          <internalNodes>
            0 -1 119 3.5967499017715454e-02</internalNodes>
          <leafValues>
            -3.6473020911216736e-01 3.5893142223358154e-01</leafValues></_>
        <_>
          <internalNodes>
            0 -1 228 1.7717210575938225e-02</internalNodes>
          <leafValues>
            -5.3236460685729980e-01 2.1046641469001770e-01</leafValues></_>
        <_>
          <internalNodes>
            0 -1 30 2.3337288200855255e-01</internalNodes>
          <leafValues>
            -1.5507614612579346e-01 6.5338528156280518e-01</leafValues></_>
        <_>
          <internalNodes>
            0 -1 472 1.2785336934030056e-02</internalNodes>
          <leafValues>
            -3.1847095489501953e-01 2.5291562080383301e-01</leafValues></_>
        <_>
          <internalNodes>
            0 -1 600 4.4046738184988499e-04</internalNodes>
          <leafValues>
            2.0880420506000519e-01 -3.8290676474571228e-01</leafValues></_>
        <_>
          <internalNodes>
            0 -1 179 -2.2902046330273151e-03</internalNodes>
          <leafValues>
            2.4553620815277100e-01 -2.9479163885116577e-01</leafValues></_>
        <_>
          <internalNodes>
            0 -1 241 4.1857108473777771e-02</internalNodes>
          <leafValues>
            1.7063792049884796e-01 -5.1058781147003174e-01</leafValues></_>
        <_>
          <internalNodes>
            0 -1 398 7.2498056106269360e-03</internalNodes>
          <leafValues>
            1.0393904894590378e-01 -6.2704223394393921e-01</leafValues></_>
        <_>
          <internalNodes>
            0 -1 589 -2.5275612715631723e-03</internalNodes>
          <leafValues>
            5.7651126384735107e-01 -1.4022986590862274e-01</leafValues></_>
        <_>
          <internalNodes>
            0 -1 416 -2.6327761588618159e-04</internalNodes>
          <leafValues>
            -3.3267602324485779e-01 2.0454953610897064e-01</leafValues></_>
        <_>
          <internalNodes>
            0 -1 191 4.0162485092878342e-03</internalNodes>
          <leafValues>
            -2.5718843936920166e-01 2.8433078527450562e-01</leafValues></_>
        <_>
          <internalNodes>
            0 -1 356 9.7400834783911705e-04</internalNodes>
          <leafValues>
            -2.2500523924827576e-01 3.2511028647422791e-01</leafValues></_>
        <_>
          <internalNodes>
            0 -1 292 -3.1246512662619352e-04</internalNodes>
          <leafValues>
            -4.5354425907135010e-01 1.7944024503231049e-01</leafValues></_>
        <_>
          <internalNodes>
            0 -1 522 -6.8711105268448591e-04</internalNodes>
          <leafValues>
            2.4760378897190094e-01 -2.4440674483776093e-01</leafValues></_>
        <_>
          <internalNodes>
            0 -1 283 -2.3084819316864014e-02</internalNodes>
          <leafValues>
            -7.0168775320053101e-01 9.9583625793457031e-02</leafValues></_>
        <_>
          <internalNodes>
            0 -1 378 -7.7996999025344849e-03</internalNodes>
          <leafValues>
            8.1549125909805298e-01 -8.7779581546783447e-02</leafValues></_>
        <_>
          <internalNodes>
            0 -1 571 -4.3279159581288695e-04</internalNodes>
          <leafValues>
            -3.4319534897804260e-01 1.8673810362815857e-01</leafValues></_>
        <_>
          <internalNodes>
            0 -1 219 -4.0889790398068726e-04</internalNodes>
          <leafValues>
            -4.2573297023773193e-01 1.3303813338279724e-01</leafValues></_>
        <_>
          <internalNodes>
            0 -1 536 5.9301662986399606e-05</internalNodes>
          <leafValues>
            1.6070514917373657e-01 -3.6890515685081482e-01</leafValues></_>
        <_>
          <internalNodes>
            0 -1 491 -1.9876614212989807e-02</internalNodes>
          <leafValues>
            -8.7694811820983887e-01 6.2468592077493668e-02</leafValues></_>
        <_>
          <internalNodes>
            0 -1 482 -9.8310085013508797e-04</internalNodes>
          <leafValues>
            -3.3736851811408997e-01 1.6035467386245728e-01</leafValues></_></weakClassifiers></_>
    <!-- stage 14 -->
    <_>
      <maxWeakCount>59</maxWeakCount>
      <stageThreshold>-2.2973875999450684e+00</stageThreshold>
      <weakClassifiers>
        <_>
          <internalNodes>
            0 -1 364 2.1227786317467690e-02</internalNodes>
          <leafValues>
            -4.9825784564018250e-01 6.0989010334014893e-01</leafValues></_>
        <_>
          <internalNodes>
            0 -1 275 1.2709274888038635e-02</internalNodes>
          <leafValues>
            -7.5945067405700684e-01 2.5021946430206299e-01</leafValues></_>
        <_>
          <internalNodes>
            0 -1 28 5.2765138447284698e-02</internalNodes>
          <leafValues>
            -3.6166170239448547e-01 5.0095891952514648e-01</leafValues></_>
        <_>
          <internalNodes>
            0 -1 415 -1.2180175632238388e-02</internalNodes>
          <leafValues>
            5.8724582195281982e-01 -1.3720189034938812e-01</leafValues></_>
        <_>
          <internalNodes>
            0 -1 519 -1.4592695515602827e-03</internalNodes>
          <leafValues>
            2.2239403426647186e-01 -3.8288444280624390e-01</leafValues></_>
        <_>
          <internalNodes>
            0 -1 452 4.5773047022521496e-03</internalNodes>
          <leafValues>
            1.7263507843017578e-01 -5.5814588069915771e-01</leafValues></_>
        <_>
          <internalNodes>
            0 -1 144 1.3928007101640105e-03</internalNodes>
          <leafValues>
            1.1917068064212799e-01 -6.8166321516036987e-01</leafValues></_>
        <_>
          <internalNodes>
            0 -1 127 1.0532720014452934e-02</internalNodes>
          <leafValues>
            -2.7824738621711731e-01 3.3612826466560364e-01</leafValues></_>
        <_>
          <internalNodes>
            0 -1 278 2.1905586123466492e-02</internalNodes>
          <leafValues>
            2.0746263861656189e-01 -4.8500174283981323e-01</leafValues></_>
        <_>
          <internalNodes>
            0 -1 50 -1.2450562790036201e-02</internalNodes>
          <leafValues>
            5.3354889154434204e-01 -1.7255406081676483e-01</leafValues></_>
        <_>
          <internalNodes>
            0 -1 79 1.8530339002609253e-02</internalNodes>
          <leafValues>
            -1.3647538423538208e-01 4.5022964477539062e-01</leafValues></_>
        <_>
          <internalNodes>
            0 -1 37 1.1391360312700272e-02</internalNodes>
          <leafValues>
            1.8249674141407013e-01 -4.9690014123916626e-01</leafValues></_>
        <_>
          <internalNodes>
            0 -1 139 -6.9021098315715790e-03</internalNodes>
          <leafValues>
            1.3883563876152039e-01 -4.1983035206794739e-01</leafValues></_>
        <_>
          <internalNodes>
            0 -1 88 -7.9330071806907654e-02</internalNodes>
          <leafValues>
            8.7438225746154785e-01 -6.7514598369598389e-02</leafValues></_>
        <_>
          <internalNodes>
            0 -1 121 -4.5762676745653152e-03</internalNodes>
          <leafValues>
            -4.1729947924613953e-01 2.0440509915351868e-01</leafValues></_>
        <_>
          <internalNodes>
            0 -1 217 1.7645366024225950e-03</internalNodes>
          <leafValues>
            1.6559830307960510e-01 -3.9130997657775879e-01</leafValues></_>
        <_>
          <internalNodes>
            0 -1 395 -3.4779706038534641e-03</internalNodes>
          <leafValues>
            3.3601459860801697e-01 -2.3241460323333740e-01</leafValues></_>
        <_>
          <internalNodes>
            0 -1 73 4.7935764305293560e-03</internalNodes>
          <leafValues>
            1.8711592257022858e-01 -5.2476656436920166e-01</leafValues></_>
        <_>
          <internalNodes>
            0 -1 256 -4.6715222299098969e-02</internalNodes>
          <leafValues>
            6.1440646648406982e-01 -1.4666445553302765e-01</leafValues></_>
        <_>
          <internalNodes>
            0 -1 234 7.8081339597702026e-03</internalNodes>
          <leafValues>
            -7.4464812874794006e-02 7.2004419565200806e-01</leafValues></_>
        <_>
          <internalNodes>
            0 -1 422 1.5203571319580078e-01</internalNodes>
          <leafValues>
            -7.4147596955299377e-02 6.9830322265625000e-01</leafValues></_>
        <_>
          <internalNodes>
            0 -1 94 -1.3047123793512583e-03</internalNodes>
          <leafValues>
            -3.7473577260971069e-01 2.2302293777465820e-01</leafValues></_>
        <_>
          <internalNodes>
            0 -1 163 2.0665735937654972e-03</internalNodes>
          <leafValues>
            -2.5759389996528625e-01 3.1306812167167664e-01</leafValues></_>
        <_>
          <internalNodes>
            0 -1 194 -5.2732087671756744e-02</internalNodes>
          <leafValues>
            -6.3358122110366821e-01 1.0228637605905533e-01</leafValues></_>
        <_>
          <internalNodes>
            0 -1 227 1.0413762647658587e-03</internalNodes>
          <leafValues>
            1.9195617735385895e-01 -3.0076479911804199e-01</leafValues></_>
        <_>
          <internalNodes>
            0 -1 512 -1.9931043498218060e-03</internalNodes>
          <leafValues>
            -6.3855016231536865e-01 1.0125223547220230e-01</leafValues></_>
        <_>
          <internalNodes>
            0 -1 598 3.8132900372147560e-03</internalNodes>
          <leafValues>
            -1.4005060493946075e-01 4.7444725036621094e-01</leafValues></_>
        <_>
          <internalNodes>
            0 -1 538 -3.6718714982271194e-03</internalNodes>
          <leafValues>
            -6.3774973154067993e-01 9.4163469970226288e-02</leafValues></_>
        <_>
          <internalNodes>
            0 -1 539 -1.2904379982501268e-03</internalNodes>
          <leafValues>
            2.6610988378524780e-01 -2.2436086833477020e-01</leafValues></_>
        <_>
          <internalNodes>
            0 -1 164 -1.0046097636222839e-01</internalNodes>
          <leafValues>
            -9.4994395971298218e-01 6.8623811006546021e-02</leafValues></_>
        <_>
          <internalNodes>
            0 -1 490 1.3883105712011456e-03</internalNodes>
          <leafValues>
            -2.4285288155078888e-01 2.7845132350921631e-01</leafValues></_>
        <_>
          <internalNodes>
            0 -1 603 -4.1314447298645973e-03</internalNodes>
          <leafValues>
            -6.1394178867340088e-01 9.1322287917137146e-02</leafValues></_>
        <_>
          <internalNodes>
            0 -1 215 1.9299250561743975e-03</internalNodes>
          <leafValues>
            -1.6112451255321503e-01 4.3357279896736145e-01</leafValues></_>
        <_>
          <internalNodes>
            0 -1 608 2.5393656687811017e-04</internalNodes>
          <leafValues>
            2.1848092973232269e-01 -3.1036376953125000e-01</leafValues></_>
        <_>
          <internalNodes>
            0 -1 411 -3.1434036791324615e-03</internalNodes>
          <leafValues>
            6.9971436262130737e-01 -8.5388183593750000e-02</leafValues></_>
        <_>
          <internalNodes>
            0 -1 417 7.7979196794331074e-04</internalNodes>
          <leafValues>
            1.6001939773559570e-01 -4.1217172145843506e-01</leafValues></_>
        <_>
          <internalNodes>
            0 -1 58 6.5651829354465008e-03</internalNodes>
          <leafValues>
            -1.2405473738908768e-01 5.3301596641540527e-01</leafValues></_>
        <_>
          <internalNodes>
            0 -1 302 -4.1537780314683914e-02</internalNodes>
          <leafValues>
            -4.9265447258949280e-01 1.3138674199581146e-01</leafValues></_>
        <_>
          <internalNodes>
            0 -1 402 2.2533461742568761e-04</internalNodes>
          <leafValues>
            -1.8404033780097961e-01 3.5808214545249939e-01</leafValues></_>
        <_>
          <internalNodes>
            0 -1 281 8.8727260008454323e-03</internalNodes>
          <leafValues>
            1.4360986649990082e-01 -4.7576329112052917e-01</leafValues></_>
        <_>
          <internalNodes>
            0 -1 612 6.9271650863811374e-04</internalNodes>
          <leafValues>
            2.0357015728950500e-01 -3.0185529589653015e-01</leafValues></_>
        <_>
          <internalNodes>
            0 -1 425 5.8264620602130890e-03</internalNodes>
          <leafValues>
            -1.4527112245559692e-01 5.3715986013412476e-01</leafValues></_>
        <_>
          <internalNodes>
            0 -1 473 2.1602034568786621e-02</internalNodes>
          <leafValues>
            -2.2632025182247162e-01 2.8578042984008789e-01</leafValues></_>
        <_>
          <internalNodes>
            0 -1 118 -5.5154194124042988e-03</internalNodes>
          <leafValues>
            -6.1691546440124512e-01 9.5498502254486084e-02</leafValues></_>
        <_>
          <internalNodes>
            0 -1 65 2.2186376154422760e-03</internalNodes>
          <leafValues>
            1.4551897346973419e-01 -3.5411438345909119e-01</leafValues></_>
        <_>
          <internalNodes>
            0 -1 405 -5.7594869285821915e-03</internalNodes>
          <leafValues>
            5.0283300876617432e-01 -1.3136160373687744e-01</leafValues></_>
        <_>
          <internalNodes>
            0 -1 542 -6.6703828051686287e-03</internalNodes>
          <leafValues>
            4.9464276432991028e-01 -1.1295003443956375e-01</leafValues></_>
        <_>
          <internalNodes>
            0 -1 262 -1.3728113844990730e-03</internalNodes>
          <leafValues>
            -6.1258679628372192e-01 1.0747192054986954e-01</leafValues></_>
        <_>
          <internalNodes>
            0 -1 552 2.7277398854494095e-02</internalNodes>
          <leafValues>
            -7.2091430425643921e-02 9.2872136831283569e-01</leafValues></_>
        <_>
          <internalNodes>
            0 -1 413 6.5536412876099348e-04</internalNodes>
          <leafValues>
            1.7679221928119659e-01 -3.5583263635635376e-01</leafValues></_>
        <_>
          <internalNodes>
            0 -1 193 -1.9548078998923302e-02</internalNodes>
          <leafValues>
            3.7025335431098938e-01 -1.4283919334411621e-01</leafValues></_>
        <_>
          <internalNodes>
            0 -1 57 6.3863582909107208e-02</internalNodes>
          <leafValues>
            -1.5000002086162567e-01 4.3197786808013916e-01</leafValues></_>
        <_>
          <internalNodes>
            0 -1 166 1.1806085240095854e-03</internalNodes>
          <leafValues>
            1.4607359468936920e-01 -4.1598403453826904e-01</leafValues></_>
        <_>
          <internalNodes>
            0 -1 222 -4.1726110794115812e-05</internalNodes>
          <leafValues>
            -4.7348111867904663e-01 1.0650664567947388e-01</leafValues></_>
        <_>
          <internalNodes>
            0 -1 15 -4.5749995857477188e-02</internalNodes>
          <leafValues>
            7.5687301158905029e-01 -6.9877795875072479e-02</leafValues></_>
        <_>
          <internalNodes>
            0 -1 590 -4.1874255985021591e-03</internalNodes>
          <leafValues>
            -8.8417309522628784e-01 7.3145389556884766e-02</leafValues></_>
        <_>
          <internalNodes>
            0 -1 577 -8.3043491467833519e-03</internalNodes>
          <leafValues>
            6.4807575941085815e-01 -8.9598044753074646e-02</leafValues></_>
        <_>
          <internalNodes>
            0 -1 132 -1.6913036815822124e-03</internalNodes>
          <leafValues>
            -6.0441339015960693e-01 9.2987008392810822e-02</leafValues></_>
        <_>
          <internalNodes>
            0 -1 270 -3.4504898940213025e-04</internalNodes>
          <leafValues>
            -5.1503485441207886e-01 9.1584675014019012e-02</leafValues></_></weakClassifiers></_>
    <!-- stage 15 -->
    <_>
      <maxWeakCount>100</maxWeakCount>
      <stageThreshold>-2.9761936664581299e+00</stageThreshold>
      <weakClassifiers>
        <_>
          <internalNodes>
            0 -1 435 3.0485953902825713e-04</internalNodes>
          <leafValues>
            -9.0582960844039917e-01 6.9105690717697144e-01</leafValues></_>
        <_>
          <internalNodes>
            0 -1 325 1.1796025559306145e-02</internalNodes>
          <leafValues>
            -8.2239663600921631e-01 4.1780701279640198e-01</leafValues></_>
        <_>
          <internalNodes>
            0 -1 503 2.7437240350991488e-04</internalNodes>
          <leafValues>
            -4.0822395682334900e-01 5.5954772233963013e-01</leafValues></_>
        <_>
          <internalNodes>
            0 -1 335 -8.1019410863518715e-03</internalNodes>
          <leafValues>
            4.7399330139160156e-01 -3.7816706299781799e-01</leafValues></_>
        <_>
          <internalNodes>
            0 -1 489 -4.4290132820606232e-02</internalNodes>
          <leafValues>
            6.6079348325729370e-01 -2.2836568951606750e-01</leafValues></_>
        <_>
          <internalNodes>
            0 -1 213 1.8024697783403099e-04</internalNodes>
          <leafValues>
            -2.3731672763824463e-01 5.1166051626205444e-01</leafValues></_>
        <_>
          <internalNodes>
            0 -1 588 3.6139530129730701e-03</internalNodes>
          <leafValues>
            2.0863240957260132e-01 -5.3896176815032959e-01</leafValues></_>
        <_>
          <internalNodes>
            0 -1 167 -9.9196825176477432e-03</internalNodes>
          <leafValues>
            7.1359139680862427e-01 -1.7613068222999573e-01</leafValues></_>
        <_>
          <internalNodes>
            0 -1 311 -2.2615598514676094e-02</internalNodes>
          <leafValues>
            7.6862180233001709e-01 -8.6259432137012482e-02</leafValues></_>
        <_>
          <internalNodes>
            0 -1 567 -1.2903635797556490e-04</internalNodes>
          <leafValues>
            -4.0688627958297729e-01 2.3928593099117279e-01</leafValues></_>
        <_>
          <internalNodes>
            0 -1 235 1.3583110645413399e-02</internalNodes>
          <leafValues>
            -2.9917713999748230e-01 3.1171056628227234e-01</leafValues></_>
        <_>
          <internalNodes>
            0 -1 306 3.6774396896362305e-02</internalNodes>
          <leafValues>
            1.2263990938663483e-01 -7.5609105825424194e-01</leafValues></_>
        <_>
          <internalNodes>
            0 -1 596 7.0639718323945999e-03</internalNodes>
          <leafValues>
            -1.5455272793769836e-01 7.2569656372070312e-01</leafValues></_>
        <_>
          <internalNodes>
            0 -1 563 4.5781214721500874e-03</internalNodes>
          <leafValues>
            1.3150106370449066e-01 -7.5599366426467896e-01</leafValues></_>
        <_>
          <internalNodes>
            0 -1 178 1.7811730504035950e-03</internalNodes>
          <leafValues>
            -2.0051158964633942e-01 4.5064231753349304e-01</leafValues></_>
        <_>
          <internalNodes>
            0 -1 33 2.1946180611848831e-02</internalNodes>
          <leafValues>
            1.9398926198482513e-01 -5.6775528192520142e-01</leafValues></_>
        <_>
          <internalNodes>
            0 -1 404 -1.1275438591837883e-03</internalNodes>
          <leafValues>
            -7.7220457792282104e-01 9.7858339548110962e-02</leafValues></_>
        <_>
          <internalNodes>
            0 -1 551 1.5962334873620421e-04</internalNodes>
          <leafValues>
            -2.1193701028823853e-01 4.0120553970336914e-01</leafValues></_>
        <_>
          <internalNodes>
            0 -1 609 2.0096777006983757e-04</internalNodes>
          <leafValues>
            1.8001271784305573e-01 -4.3491783738136292e-01</leafValues></_>
        <_>
          <internalNodes>
            0 -1 105 1.1160431802272797e-01</internalNodes>
          <leafValues>
            -1.5918178856372833e-01 5.2190953493118286e-01</leafValues></_>
        <_>
          <internalNodes>
            0 -1 478 1.4556688256561756e-03</internalNodes>
          <leafValues>
            -1.2721653282642365e-01 4.8426300287246704e-01</leafValues></_>
        <_>
          <internalNodes>
            0 -1 377 -1.2321543879806995e-02</internalNodes>
          <leafValues>
            -9.1430664062500000e-01 9.4907559454441071e-02</leafValues></_>
        <_>
          <internalNodes>
            0 -1 511 -1.7998463590629399e-04</internalNodes>
          <leafValues>
            -4.1587096452713013e-01 1.6159845888614655e-01</leafValues></_>
        <_>
          <internalNodes>
            0 -1 347 3.8897685706615448e-02</internalNodes>
          <leafValues>
            -1.1181912571191788e-01 8.3037215471267700e-01</leafValues></_>
        <_>
          <internalNodes>
            0 -1 343 -3.1395780388265848e-04</internalNodes>
          <leafValues>
            -5.3018969297409058e-01 1.4077897369861603e-01</leafValues></_>
        <_>
          <internalNodes>
            0 -1 476 -8.8175991550087929e-04</internalNodes>
          <leafValues>
            3.6585637927055359e-01 -2.0336891710758209e-01</leafValues></_>
        <_>
          <internalNodes>
            0 -1 183 7.6078780693933368e-04</internalNodes>
          <leafValues>
            1.8268479406833649e-01 -4.0786999464035034e-01</leafValues></_>
        <_>
          <internalNodes>
            0 -1 414 1.7211366866831668e-05</internalNodes>
          <leafValues>
            -1.6165366768836975e-01 4.6657109260559082e-01</leafValues></_>
        <_>
          <internalNodes>
            0 -1 245 5.4004229605197906e-04</internalNodes>
          <leafValues>
            1.1809230595827103e-01 -5.8895927667617798e-01</leafValues></_>
        <_>
          <internalNodes>
            0 -1 107 -8.2039725384674966e-05</internalNodes>
          <leafValues>
            4.0430867671966553e-01 -1.5669026970863342e-01</leafValues></_>
        <_>
          <internalNodes>
            0 -1 55 1.6547903418540955e-02</internalNodes>
          <leafValues>
            1.9327780604362488e-01 -4.6817985177040100e-01</leafValues></_>
        <_>
          <internalNodes>
            0 -1 449 1.0254079825244844e-04</internalNodes>
          <leafValues>
            -1.3815227150917053e-01 4.4554001092910767e-01</leafValues></_>
        <_>
          <internalNodes>
            0 -1 575 4.6665361151099205e-04</internalNodes>
          <leafValues>
            1.3099269568920135e-01 -4.9566018581390381e-01</leafValues></_>
        <_>
          <internalNodes>
            0 -1 384 3.2989382743835449e-03</internalNodes>
          <leafValues>
            -7.8712776303291321e-02 7.3345249891281128e-01</leafValues></_>
        <_>
          <internalNodes>
            0 -1 593 1.7773208674043417e-03</internalNodes>
          <leafValues>
            6.4060911536216736e-02 -9.4124633073806763e-01</leafValues></_>
        <_>
          <internalNodes>
            0 -1 584 -1.9660734105855227e-03</internalNodes>
          <leafValues>
            7.9551512002944946e-01 -6.8571761250495911e-02</leafValues></_>
        <_>
          <internalNodes>
            0 -1 103 5.0190985202789307e-03</internalNodes>
          <leafValues>
            7.6043479144573212e-02 -7.5782036781311035e-01</leafValues></_>
        <_>
          <internalNodes>
            0 -1 199 3.2739627640694380e-03</internalNodes>
          <leafValues>
            -1.0115616768598557e-01 5.7209742069244385e-01</leafValues></_>
        <_>
          <internalNodes>
            0 -1 184 3.4159043570980430e-04</internalNodes>
          <leafValues>
            1.1527262628078461e-01 -4.3999552726745605e-01</leafValues></_>
        <_>
          <internalNodes>
            0 -1 251 1.7565898597240448e-03</internalNodes>
          <leafValues>
            -9.4695463776588440e-02 5.1732486486434937e-01</leafValues></_>
        <_>
          <internalNodes>
            0 -1 195 5.9757631272077560e-02</internalNodes>
          <leafValues>
            6.3130244612693787e-02 -7.8574001789093018e-01</leafValues></_>
        <_>
          <internalNodes>
            0 -1 397 -7.4567965930327773e-04</internalNodes>
          <leafValues>
            -5.0268954038619995e-01 8.6041487753391266e-02</leafValues></_>
        <_>
          <internalNodes>
            0 -1 504 -3.7914393469691277e-03</internalNodes>
          <leafValues>
            6.5501326322555542e-01 -8.9460387825965881e-02</leafValues></_>
        <_>
          <internalNodes>
            0 -1 198 6.8031407892704010e-02</internalNodes>
          <leafValues>
            6.3896782696247101e-02 -8.6095768213272095e-01</leafValues></_>
        <_>
          <internalNodes>
            0 -1 337 -8.8487323373556137e-03</internalNodes>
          <leafValues>
            4.8271298408508301e-01 -1.1962141841650009e-01</leafValues></_>
        <_>
          <internalNodes>
            0 -1 611 -2.0016197231598198e-04</internalNodes>
          <leafValues>
            -5.6172752380371094e-01 8.6298279464244843e-02</leafValues></_>
        <_>
          <internalNodes>
            0 -1 547 3.7976135499775410e-03</internalNodes>
          <leafValues>
            -4.6611223369836807e-02 7.5573033094406128e-01</leafValues></_>
        <_>
          <internalNodes>
            0 -1 112 2.0680823363363743e-03</internalNodes>
          <leafValues>
            5.9416007250547409e-02 -7.5101494789123535e-01</leafValues></_>
        <_>
          <internalNodes>
            0 -1 145 -9.0087967691943049e-05</internalNodes>
          <leafValues>
            4.7946274280548096e-01 -8.4208287298679352e-02</leafValues></_>
        <_>
          <internalNodes>
            0 -1 578 -1.3535692414734513e-04</internalNodes>
          <leafValues>
            -5.0101208686828613e-01 7.4862062931060791e-02</leafValues></_>
        <_>
          <internalNodes>
            0 -1 330 -3.0106687918305397e-03</internalNodes>
          <leafValues>
            6.1182522773742676e-01 -6.3080489635467529e-02</leafValues></_>
        <_>
          <internalNodes>
            0 -1 218 -1.5106080099940300e-03</internalNodes>
          <leafValues>
            -5.5987542867660522e-01 6.2505684792995453e-02</leafValues></_>
        <_>
          <internalNodes>
