<?xml version="1.0"?>
<opencv_storage>
<stage17>
  <maxWeakCount>100</maxWeakCount>
  <stageThreshold>-3.0858502388000488e+00</stageThreshold>
  <weakClassifiers>
    <_>
      <internalNodes>
        0 -1 66622 1.2880192662123591e-04</internalNodes>
      <leafValues>
        -9.7142857313156128e-01 9.1964286565780640e-01</leafValues></_>
    <_>
      <internalNodes>
        0 -1 77076 2.0713305275421590e-04</internalNodes>
      <leafValues>
        -8.5467749834060669e-01 7.4802917242050171e-01</leafValues></_>
    <_>
      <internalNodes>
        0 -1 27495 6.2980165239423513e-05</internalNodes>
      <leafValues>
        -6.2646907567977905e-01 7.7142906188964844e-01</leafValues></_>
    <_>
      <internalNodes>
        0 -1 102719 -2.0993389625800774e-05</internalNodes>
      <leafValues>
        8.4740781784057617e-01 -4.3551591038703918e-01</leafValues></_>
    <_>
      <internalNodes>
        0 -1 108613 1.5497094864258543e-05</internalNodes>
      <leafValues>
        -3.1524884700775146e-01 7.5008416175842285e-01</leafValues></_>
    <_>
      <internalNodes>
        0 -1 159495 4.7956089838407934e-04</internalNodes>
      <leafValues>
        4.0687215328216553e-01 -6.3539397716522217e-01</leafValues></_>
    <_>
      <internalNodes>
        0 -1 41211 7.5364230724517256e-05</internalNodes>
      <leafValues>
        -2.7875292301177979e-01 1.</leafValues></_>
    <_>
      <internalNodes>
        0 -1 136848 -5.7048186135943979e-05</internalNodes>
      <leafValues>
        8.7533050775527954e-01 -1.2971049547195435e-01</leafValues></_>
    <_>
      <internalNodes>
        0 -1 70646 4.4133269693702459e-04</internalNodes>
      <leafValues>
        2.1548454463481903e-01 -7.9199844598770142e-01</leafValues></_>
    <_>
      <internalNodes>
        0 -1 144408 -1.7208805729751475e-05</internalNodes>
      <leafValues>
        8.8051813840866089e-01 -1.9488576054573059e-01</leafValues></_>
    <_>
      <internalNodes>
        0 -1 84221 -6.2407944351434708e-03</internalNodes>
      <leafValues>
        -6.9610428810119629e-01 1.9467930495738983e-01</leafValues></_>
    <_>
      <internalNodes>
        0 -1 90413 1.6011385014280677e-05</internalNodes>
      <leafValues>
        -1.3157562911510468e-01 8.5570216178894043e-01</leafValues></_>
    <_>
      <internalNodes>
        0 -1 127087 -1.8669091514311731e-04</internalNodes>
      <leafValues>
        1. -5.3022507578134537e-02</leafValues></_>
    <_>
      <internalNodes>
        0 -1 8816 -1.5489499492105097e-04</internalNodes>
      <leafValues>
        -8.2384914159774780e-01 1.1522267013788223e-01</leafValues></_>
    <_>
      <internalNodes>
        0 -1 147088 -3.9634680433664471e-05</internalNodes>
      <leafValues>
        8.0136239528656006e-01 -6.5201848745346069e-02</leafValues></_>
    <_>
      <internalNodes>
        0 -1 161542 1.6243690624833107e-03</internalNodes>
      <leafValues>
        5.2111938595771790e-02 -9.5258212089538574e-01</leafValues></_>
    <_>
      <internalNodes>
        0 -1 7622 -1.0646404698491096e-03</internalNodes>
      <leafValues>
        9.1771107912063599e-01 -4.1189711540937424e-02</leafValues></_>
    <_>
      <internalNodes>
        0 -1 34518 3.4276600927114487e-03</internalNodes>
      <leafValues>
        4.1992202401161194e-02 -9.0265405178070068e-01</leafValues></_>
    <_>
      <internalNodes>
        0 -1 29010 -3.5678218118846416e-03</internalNodes>
      <leafValues>
        9.5850157737731934e-01 -2.5131279602646828e-02</leafValues></_>
    <_>
      <internalNodes>
        0 -1 160702 -1.0559199145063758e-03</internalNodes>
      <leafValues>
        -1. 2.1888349205255508e-02</leafValues></_>
    <_>
      <internalNodes>
        0 -1 47940 5.7465885765850544e-04</internalNodes>
      <leafValues>
        -1.7776964232325554e-02 9.5372182130813599e-01</leafValues></_>
    <_>
      <internalNodes>
        0 -1 157763 1.2660555075854063e-03</internalNodes>
      <leafValues>
        1.2030368670821190e-02 -1.</leafValues></_>
    <_>
      <internalNodes>
        0 -1 67454 -2.1403608843684196e-04</internalNodes>
      <leafValues>
        9.0589165687561035e-01 -1.1018780991435051e-02</leafValues></_>
    <_>
      <internalNodes>
        0 -1 2684 2.5616926723159850e-04</internalNodes>
      <leafValues>
        4.4311606325209141e-03 -1.</leafValues></_>
    <_>
      <internalNodes>
        0 -1 16486 4.7607760643586516e-04</internalNodes>
      <leafValues>
        7.1395421400666237e-04 1.</leafValues></_>
    <_>
      <internalNodes>
        0 -1 152035 -1.5469764359295368e-02</internalNodes>
      <leafValues>
        -1. 1.3839617604389787e-03</leafValues></_>
    <_>
      <internalNodes>
        0 -1 154224 1.0807928629219532e-04</internalNodes>
      <leafValues>
        -2.0213667303323746e-03 1.</leafValues></_>
    <_>
      <internalNodes>
        0 -1 91 -1.1942643905058503e-03</internalNodes>
      <leafValues>
        -1. 9.6623273566365242e-04</leafValues></_>
    <_>
      <internalNodes>
        0 -1 91 -8.9536124141886830e-04</internalNodes>
      <leafValues>
        1. 3.0069469136861926e-10</leafValues></_>
    <_>
      <internalNodes>
        0 -1 91 -1.1942643905058503e-03</internalNodes>
      <leafValues>
        -1. -5.4321096410145137e-16</leafValues></_>
    <_>
      <internalNodes>
        0 -1 91 -8.9536124141886830e-04</internalNodes>
      <leafValues>
        1. -1.4114119529219063e-15</leafValues></_>
    <_>
      <internalNodes>
        0 -1 91 -1.1942643905058503e-03</internalNodes>
      <leafValues>
        -1. -5.3093210980025701e-15</leafValues></_>
    <_>
      <internalNodes>
        0 -1 91 -8.9536124141886830e-04</internalNodes>
      <leafValues>
        1. 6.0112856769959418e-15</leafValues></_>
    <_>
      <internalNodes>
        0 -1 91 -1.1942643905058503e-03</internalNodes>
      <leafValues>
        -1. -6.0136745216654358e-16</leafValues></_>
    <_>
      <internalNodes>
        0 -1 91 -8.9536124141886830e-04</internalNodes>
      <leafValues>
        1. -5.9738447031449336e-15</leafValues></_>
    <_>
      <internalNodes>
        0 -1 91 -1.1942643905058503e-03</internalNodes>
      <leafValues>
        -1. 4.1728612278362116e-15</leafValues></_>
    <_>
      <internalNodes>
        0 -1 91 -8.9536124141886830e-04</internalNodes>
      <leafValues>
        1. -3.7332955974409606e-15</leafValues></_>
    <_>
      <internalNodes>
        0 -1 91 -1.1942643905058503e-03</internalNodes>
      <leafValues>
        -1. 9.5520773670638385e-16</leafValues></_>
    <_>
      <internalNodes>
        0 -1 91 -8.9536124141886830e-04</internalNodes>
      <leafValues>
        1. 4.9038498142837256e-15</leafValues></_>
    <_>
      <internalNodes>
        0 -1 91 -1.1942643905058503e-03</internalNodes>
      <leafValues>
        -1. -4.7517392140993247e-15</leafValues></_>
    <_>
      <internalNodes>
        0 -1 91 -8.9536124141886830e-04</internalNodes>
      <leafValues>
        1. 4.1349603150948443e-15</leafValues></_>
    <_>
      <internalNodes>
        0 -1 91 -1.1942643905058503e-03</internalNodes>
      <leafValues>
        -1. 1.3420552011348297e-15</leafValues></_>
    <_>
      <internalNodes>
        0 -1 91 -8.9536124141886830e-04</internalNodes>
      <leafValues>
        1. 2.7470083160756852e-16</leafValues></_>
    <_>
      <internalNodes>
        0 -1 91 -1.1942643905058503e-03</internalNodes>
      <leafValues>
        -1. -6.8936157577117498e-16</leafValues></_>
    <_>
      <internalNodes>
        0 -1 91 -8.9536124141886830e-04</internalNodes>
      <leafValues>
        1. 1.4785845243753693e-15</leafValues></_>
    <_>
      <internalNodes>
        0 -1 91 -1.1942643905058503e-03</internalNodes>
      <leafValues>
        -1. -9.2555036036593222e-15</leafValues></_>
    <_>
      <internalNodes>
        0 -1 91 -8.9536124141886830e-04</internalNodes>
      <leafValues>
        1. 1.2914896635243529e-15</leafValues></_>
    <_>
      <internalNodes>
        0 -1 91 -1.1942643905058503e-03</internalNodes>
      <leafValues>
        -1. 7.4880973614127079e-15</leafValues></_>
    <_>
      <internalNodes>
        0 -1 91 -8.9536124141886830e-04</internalNodes>
      <leafValues>
        1. -1.1035328195945632e-14</leafValues></_>
    <_>
      <internalNodes>
        0 -1 91 -1.1942643905058503e-03</internalNodes>
      <leafValues>
        -1. 5.3750944769062874e-15</leafValues></_>
    <_>
      <internalNodes>
        0 -1 91 -8.9536124141886830e-04</internalNodes>
      <leafValues>
        1. 1.7654008917439897e-15</leafValues></_>
    <_>
      <internalNodes>
        0 -1 91 -1.1942643905058503e-03</internalNodes>
      <leafValues>
        -1. -2.9036602834067900e-15</leafValues></_>
    <_>
      <internalNodes>
        0 -1 91 -8.9536124141886830e-04</internalNodes>
      <leafValues>
        1. 5.0927983008606896e-15</leafValues></_>
    <_>
      <internalNodes>
        0 -1 91 -1.1942643905058503e-03</internalNodes>
      <leafValues>
        -1. 1.4378503923045548e-15</leafValues></_>
    <_>
      <internalNodes>
        0 -1 91 -8.9536124141886830e-04</internalNodes>
      <leafValues>
        1. -7.1084351715967019e-15</leafValues></_>
    <_>
      <internalNodes>
        0 -1 91 -1.1942643905058503e-03</internalNodes>
      <leafValues>
        -1. -1.9965815940381059e-15</leafValues></_>
    <_>
      <internalNodes>
        0 -1 91 -8.9536124141886830e-04</internalNodes>
      <leafValues>
        1. 2.6342381611265103e-15</leafValues></_>
    <_>
      <internalNodes>
        0 -1 91 -1.1942643905058503e-03</internalNodes>
      <leafValues>
        -1. -3.0434575656369551e-15</leafValues></_>
    <_>
      <internalNodes>
        0 -1 91 -8.9536124141886830e-04</internalNodes>
      <leafValues>
        1. -8.4320785234361833e-16</leafValues></_>
    <_>
      <internalNodes>
        0 -1 91 -1.1942643905058503e-03</internalNodes>
      <leafValues>
        -1. 8.7925670636999041e-15</leafValues></_>
    <_>
      <internalNodes>
        0 -1 91 -8.9536124141886830e-04</internalNodes>
      <leafValues>
        1. -5.2684763222530205e-15</leafValues></_>
    <_>
      <internalNodes>
        0 -1 91 -1.1942643905058503e-03</internalNodes>
      <leafValues>
        -1. -1.6179827482082593e-16</leafValues></_>
    <_>
      <internalNodes>
        0 -1 91 -8.9536124141886830e-04</internalNodes>
      <leafValues>
        1. 6.8908184314034424e-15</leafValues></_>
    <_>
      <internalNodes>
        0 -1 91 -1.1942643905058503e-03</internalNodes>
      <leafValues>
        -1. -2.6914431664940399e-15</leafValues></_>
    <_>
      <internalNodes>
        0 -1 91 -8.9536124141886830e-04</internalNodes>
      <leafValues>
        1. -6.3083316612685524e-15</leafValues></_>
    <_>
      <internalNodes>
        0 -1 91 -1.1942643905058503e-03</internalNodes>
      <leafValues>
        -1. 1.7385293008879391e-15</leafValues></_>
    <_>
      <internalNodes>
        0 -1 91 -8.9536124141886830e-04</internalNodes>
      <leafValues>
        1. 3.6321543578246400e-15</leafValues></_>
    <_>
      <internalNodes>
        0 -1 91 -1.1942643905058503e-03</internalNodes>
      <leafValues>
        -1. 1.9502878553388694e-15</leafValues></_>
    <_>
      <internalNodes>
        0 -1 91 -8.9536124141886830e-04</internalNodes>
      <leafValues>
        1. 8.3854795352385800e-16</leafValues></_>
    <_>
      <internalNodes>
        0 -1 91 -1.1942643905058503e-03</internalNodes>
      <leafValues>
        -1. 4.2718409981898169e-16</leafValues></_>
    <_>
      <internalNodes>
        0 -1 91 -8.9536124141886830e-04</internalNodes>
      <leafValues>
        1. -9.6862893140398088e-15</leafValues></_>
    <_>
      <internalNodes>
        0 -1 91 -1.1942643905058503e-03</internalNodes>
      <leafValues>
        -1. 7.9574501759475773e-15</leafValues></_>
    <_>
      <internalNodes>
        0 -1 91 -8.9536124141886830e-04</internalNodes>
      <leafValues>
        1. -5.1025840460305389e-17</leafValues></_>
    <_>
      <internalNodes>
        0 -1 91 -1.1942643905058503e-03</internalNodes>
      <leafValues>
        -1. -4.2901752910309322e-15</leafValues></_>
    <_>
      <internalNodes>
        0 -1 91 -8.9536124141886830e-04</internalNodes>
      <leafValues>
        1. 1.4235976865384619e-16</leafValues></_>
    <_>
      <internalNodes>
        0 -1 91 -1.1942643905058503e-03</internalNodes>
      <leafValues>
        -1. -1.8334082406367514e-16</leafValues></_>
    <_>
      <internalNodes>
        0 -1 91 -8.9536124141886830e-04</internalNodes>
      <leafValues>
        1. 5.4280776583064648e-15</leafValues></_>
    <_>
      <internalNodes>
        0 -1 91 -1.1942643905058503e-03</internalNodes>
      <leafValues>
        -1. 1.0688770171290692e-15</leafValues></_>
    <_>
      <internalNodes>
        0 -1 91 -8.9536124141886830e-04</internalNodes>
      <leafValues>
        1. -6.5208230050979761e-15</leafValues></_>
    <_>
      <internalNodes>
        0 -1 91 -1.1942643905058503e-03</internalNodes>
      <leafValues>
        -1. 2.9265778185859391e-15</leafValues></_>
    <_>
      <internalNodes>
        0 -1 91 -8.9536124141886830e-04</internalNodes>
      <leafValues>
        1. -5.6023576518193525e-15</leafValues></_>
    <_>
      <internalNodes>
        0 -1 91 -1.1942643905058503e-03</internalNodes>
      <leafValues>
        -1. 3.4252648663918826e-15</leafValues></_>
    <_>
      <internalNodes>
        0 -1 91 -8.9536124141886830e-04</internalNodes>
      <leafValues>
        1. 6.2726834326504079e-15</leafValues></_>
    <_>
      <internalNodes>
        0 -1 91 -1.1942643905058503e-03</internalNodes>
      <leafValues>
        -1. -8.7691914954545272e-15</leafValues></_>
    <_>
      <internalNodes>
        0 -1 91 -8.9536124141886830e-04</internalNodes>
      <leafValues>
        1. 7.3836020830834971e-16</leafValues></_>
    <_>
      <internalNodes>
        0 -1 91 -1.1942643905058503e-03</internalNodes>
      <leafValues>
        -1. 5.1110836246095418e-15</leafValues></_>
    <_>
      <internalNodes>
        0 -1 91 -8.9536124141886830e-04</internalNodes>
      <leafValues>
        1. -5.7337667667728583e-15</leafValues></_>
    <_>
      <internalNodes>
        0 -1 91 -1.1942643905058503e-03</internalNodes>
      <leafValues>
        -1. 3.8946172574102784e-15</leafValues></_>
    <_>
      <internalNodes>
        0 -1 91 -8.9536124141886830e-04</internalNodes>
      <leafValues>
        1. -4.6538361814403573e-15</leafValues></_>
    <_>
      <internalNodes>
        0 -1 91 -1.1942643905058503e-03</internalNodes>
      <leafValues>
        -1. 3.6370235267219313e-15</leafValues></_>
    <_>
      <internalNodes>
        0 -1 91 -8.9536124141886830e-04</internalNodes>
      <leafValues>
        1. -4.6601270951396150e-15</leafValues></_>
    <_>
      <internalNodes>
        0 -1 91 -1.1942643905058503e-03</internalNodes>
      <leafValues>
        -1. 3.8446571365988516e-15</leafValues></_>
    <_>
      <internalNodes>
        0 -1 91 -8.9536124141886830e-04</internalNodes>
      <leafValues>
        1. 6.5173277236411312e-15</leafValues></_>
    <_>
      <internalNodes>
        0 -1 91 -1.1942643905058503e-03</internalNodes>
      <leafValues>
        -1. -8.7054802182609005e-15</leafValues></_>
    <_>
      <internalNodes>
        0 -1 91 -8.9536124141886830e-04</internalNodes>
      <leafValues>
        1. 9.1543615170100543e-16</leafValues></_>
    <_>
      <internalNodes>
        0 -1 91 -1.1942643905058503e-03</internalNodes>
      <leafValues>
        -1. 5.1647109745661061e-15</leafValues></_>
    <_>
      <internalNodes>
        0 -1 91 -8.9536124141886830e-04</internalNodes>
      <leafValues>
        1. -5.6759838731770644e-15</leafValues></_>
    <_>
      <internalNodes>
        0 -1 91 -1.1942643905058503e-03</internalNodes>
      <leafValues>
        -1. 3.9381606801297802e-15</leafValues></_>
    <_>
      <internalNodes>
        0 -1 91 -8.9536124141886830e-04</internalNodes>
      <leafValues>
        1. -4.5958207773005421e-15</leafValues></_>
    <_>
      <internalNodes>
        0 -1 91 -1.1942643905058503e-03</internalNodes>
      <leafValues>
        -1. 3.6892757186886282e-15</leafValues></_></weakClassifiers></stage17>
</opencv_storage>
